{"shape": [784, 50, 30, 10], "biases": [[[-0.5697292970300658], [-1.3890564187983405], [1.5811671782976304], [-0.5257419861704443], [1.43008832121963], [-1.212140343185735], [0.9132048660393436], [-0.5469429669361241], [-0.1675864516864543], [-1.3958811296646165], [-1.010793776129714], [-0.758811514229518], [-0.3434214021044144], [0.6272969126638112], [-1.4889843348874254], [-1.8160582706446782], [-0.09562238375080002], [-0.8141226387565403], [-1.219349024045387], [-1.1540292331512538], [0.8616468462580134], [0.8292585010449416], [0.7122149619628608], [0.6741000685393856], [-1.1374111620653813], [-0.2607363675482261], [0.23578459515079833], [0.2993889236863561], [0.5558187588380088], [1.3679896254826613], [0.7832654499751099], [-0.12902568827459907], [0.03196592905943186], [-0.9122363805870388], [-0.15992911593631612], [-0.9633833162934595], [1.3577934227155068], [-0.7386715225119983], [-1.2049927965900769], [1.3043815096750504], [-0.03822829059425863], [0.25594592123257337], [-0.7821809471633391], [0.5813972128007013], [-0.9161082815585542], [1.805957884204825], [0.7753262528017709], [1.4432338207278437], [0.02979769342297066], [-1.168896478126174]], [[2.036842917937738], [-1.1113844451274169], [-1.006104612234739], [2.7360489159588997], [2.0320634608627435], [-0.03925934595005192], [-0.8507788982089246], [-0.4249699722991681], [-1.2346889981680933], [1.4596049220101002], [-0.752372416133546], [-0.4591131393606137], [-0.9369729567572738], [0.6735413419633052], [-2.563658245075723], [2.956022362502752], [-0.033319942016968966], [0.32211489645238767], [-0.594375283502555], [0.9467948057289367], [-2.45690002091425], [-0.011905246017942368], [-0.8130375646406909], [1.0719223835513454], [-2.067897187594929], [0.5264470338748971], [-1.225724675044019], [0.24088260274118045], [2.2883543789669796], [2.9922663851759084]], [[-4.605500246171057], [-0.5154748626666213], [-0.38845441912143647], [-1.1048453751125409], [-0.7027931347526778], [-0.6740394198694047], [-2.667082363614731], [1.0374295674248002], [-2.9984362381974003], [-0.582051914491945]]], "weights": [[[0.016863670250195972, -0.165334801912489, 0.7503155754587186, -0.6542141805225999, -0.2871141725294149, 0.7245798245407727, -1.116085084160365, 0.724478704267062, 1.2725390462055166, -0.21708808377314542, 0.38743513992674683, -0.29621632351341587, 0.27745676823056303, 0.7526519143238378, -0.2771561781390422, -0.5323892335527621, -0.4838014587718747, -1.260545027598226, -1.7530362910064998, -0.7313254502457492, 1.58682531981785, -0.5939723708060454, 0.1356440661707194, -0.4420327221778394, 0.6164525768531283, -0.09861911043132149, -1.3323735600780053, -1.275368409246884, -0.27975374013951687, -0.31827288244039253, 1.233890363278327, -0.161284912562737, -1.9526131868777494, 0.7212274081509128, 0.8411724779155136, -0.035903321313142424, -1.5539654887431023, 0.8086443587787783, 0.4278796305724826, 0.6545057196812845, 0.718293323959791, -1.7254974829433178, -1.2431769578946832, 0.16794119100584678, -0.4860970842017074, 0.6922464928989658, -0.5783285409858091, 1.202564381181054, -0.7596446208550786, 0.5195312866765259, 0.43961464082069907, 1.7431007787285662, 0.04022690775771883, 0.6344640727027606, 1.0801116730841345, -2.535396354529309, -0.08445923776307657, 1.743820405161124, 1.8199788066950775, -0.8489854464963109, -1.4885762331328074, -0.2567616049131859, -0.585462712977581, -1.0589606755578311, -1.5201382735679085, -0.28622588358672274, 0.09240078881283095, 1.8026886297212068, -2.4039897372196517, -2.614578199485363, -1.9583770376423242, -2.3554612668370254, 0.3194021469552229, -0.31556599600173274, -1.3816267913398386, -1.0069708821074588, -1.4478279452117326, 0.3088333056300346, -1.5135590496141293, 0.9839517178056627, 0.05340135668494133, -0.18399431705998975, -0.4641147788128136, 0.5945258440289348, -0.31672875291059943, -1.3923152496507254, 0.6670139291078848, 0.32069275070648856, -2.041056147941153, -1.652416806497115, 0.18688895049293672, 1.606774722278028, 0.43547821329357167, -1.9383663397224606, -0.6227552241010537, -2.4599918465984842, -3.2623537282940624, -1.7369663618180555, -2.637418782065568, -1.7238309283876634, -2.054247900761479, -2.09534345294021, -2.566713329258037, -2.3091460773037977, -1.1956080589639004, 0.24715767956226112, 0.4952911520849134, -1.502785643694568, 0.7903863752273796, 0.43723559687477254, 0.42904645960087595, -1.2684377774344737, -0.7694942649243914, 0.7227515230462227, -0.36253532561161306, -1.2355873301436207, 0.49751965669330883, -1.0462139839916036, -1.004593876009575, 1.482361495811976, 0.055350095886870815, 2.501188645845926, 0.8087912964471542, -0.634482312774245, -2.1582475465968907, -0.29195369279946287, -0.7092173840545076, 1.077414071260363, 2.5792267579557, 0.250526502184333, -0.6327610407873121, -0.17469508061290254, -0.6627763716916452, -2.212388681792618, -0.3797808416596327, -1.4645720255874, -1.7256077247464225, 0.530587938731951, 0.12119249364051242, 0.32960197228830285, -0.6952147716178284, -1.5425295179465182, 0.9931382183058939, 0.12956162424254603, -0.06804123812238948, 0.3731471440788805, 0.36273479398009156, 1.4913064820817834, 1.4737827497706681, 3.2045556554103336, -0.17371921843648694, -0.5142542211671782, 2.3123498960361153, 3.58689136053634, 9.176756193681873, 10.305798438255312, 10.162759571855457, 8.06667962517204, 7.2852502044635195, 4.671731887254524, 4.264590664574536, 2.365829657573652, -1.5452715221054683, -1.1756573463791913, 1.0179431504677185, 0.5080543787120027, 0.6403695364892759, -0.049435077981816546, -1.425195271691913, 0.4219068045769428, 1.2401952700842493, 0.5805873335320855, 0.04838413329304545, -1.0458073943101471, 0.40453536393038936, 3.605223283202188, -0.506170880366279, -0.3452142158948519, -4.5642127442310025, -5.7162595618496495, -1.6268998598928903, 3.4384182731339434, 4.173217990908817, 5.361574115673822, 5.326683650688517, 4.296145673220864, 5.23490013464182, 2.43818302065867, 1.8792463559784125, 0.3543719599214154, 0.34775537632283005, 1.812001785741028, 1.7016695148593612, 0.9962854336440902, 0.5297735423743953, -0.056574502094663796, 1.0427809289038024, -0.02826025877817088, 0.7000849872411824, -0.9774450477695327, -1.3901497278401302, -3.046342572432139, -0.39804782282704076, -0.9721581240751669, -3.8611809041347014, -5.803213689784053, -5.993282441533863, -5.956104690477967, -1.3292592420375584, -1.126376342816882, -1.1430596783339884, -1.7019077938808087, -1.7804347577836586, -4.135652496963232, -1.2878475198849102, -1.6775636686181756, 3.051306261524881, 1.1625583407963846, 0.3307128659344762, 3.626815676025073, 2.23912151795622, 3.141939551869263, -1.109268245143182, 2.9993280743290285, -1.5457468112905912, -1.223754507653609, 0.8085992742230641, -0.801149166737771, 1.5072771008916208, -0.4924770700019804, -2.6949574648040757, -4.7368277606364275, -3.6479446579273977, -7.644256006836244, -7.346709209604001, -1.5019588190915933, -2.3422062119988003, -6.899545423364673, -3.596835810543471, 4.773113958255486, 6.037246402219495, 2.088369180975783, 0.029051915664821803, -0.9645302531664975, 0.5046270009695787, 3.091551365689333, -0.39737843351141355, 1.3698679796448228, 2.194708578665628, 1.9575732755488597, -1.1504378782800548, -0.7481344563331546, -0.8699686704530907, 0.21299589979138447, -0.48386705261658647, -0.27676807539827925, -1.204625373089669, 0.2724299868361095, -3.765907781292096, -4.992667583306519, -4.219309682920104, -6.591573369229011, -4.892895335067546, -1.9834953006561933, -3.5703856038386936, -3.604207098978272, -0.0977318598650261, 4.047653404845534, 7.783614806477805, 8.242449028057957, 5.2811890214877755, 0.9954692134125099, -0.4179214805684846, -0.0697498806603638, 2.9296072776659674, 4.8836319724512745, 3.0249919435627914, 2.1596292779442683, 1.7166550509570746, 0.6060783354763527, -1.1488205550625457, 0.010637991046914515, -0.9701964882474755, -0.9703149740101845, -1.7516112275854685, -1.9971532925858668, -3.7950594324155746, -5.211375514326521, -4.688091807852003, -4.218979041711392, -3.417570199694376, -6.607743241035253, -4.025203370221818, -0.27913381976300067, 2.320920976819157, 5.5062426790087695, 6.115347725908657, 4.090296529937722, 1.8354761300453026, 0.621944005905336, -4.942357085682277, -5.714874659519202, -0.18015264185900093, 2.3274403437886355, 3.8048900751388617, 3.7250314378523464, 1.3455562478090406, 0.28009477238062785, 0.2635659848914928, -1.2310443104410007, 0.374480584199879, -2.051717824369868, -2.5016734528095785, -2.2442160584025923, -3.7675869375820032, -5.640238961857821, -6.406030713575634, -6.010848806202976, -6.674228849310789, -6.833055492997899, -6.298551366756517, -0.17447315496865107, 3.9446757342009775, 1.2602984587296104, -1.625951291240512, -4.829671605423612, -3.94256655526663, -5.060979227583494, -6.688330386628622, -6.880834398707212, -3.5674476484702398, 0.008586857524167515, 1.0305928707034997, 0.8114899903773897, 1.148252984818305, 0.43261787128568924, 0.5537772281109307, -0.6772901387542699, 1.0654594773571218, -0.9264934843733904, -1.464567887136767, -1.9140582198616811, -4.937627302159674, -6.373956147584755, -7.875813252872798, -7.677552307036067, -5.158488006590559, -7.988141082713855, -2.1207190800437763, 4.6926107343769825, 3.252332919079626, -7.557934199635912, -7.4408731979187035, -6.918856483421358, -6.643881469774069, -6.725421555388627, -4.952437104038982, -4.270406210413583, -6.146792435220599, -2.264582373800277, -0.7747926512142097, 1.370323125314499, -1.4878307801237876, -0.7140744827943353, 0.7633371702346764, 2.195720275458667, -0.2330575986170756, 0.14188446910438646, -0.43165784104768945, -1.5607710113744582, -3.869471536026812, -5.590892379282671, -5.401179160547052, -4.9822737738670035, -5.285248382381226, -8.48922124413114, 0.09104900850806653, 1.7171098691327835, -2.1688341125883324, -5.596719352659189, -8.010846240696473, -6.9583438830084035, -5.551544996196881, -6.746975737446665, -5.891483672495896, -8.813871206311969, -5.032852733298296, -3.8526482747171973, -4.196643721315655, -0.6574977308863482, 0.6061355513496152, -0.7309829815939144, 1.216822059177669, -0.326446267619869, -0.8319397090345296, 0.8235493944915588, -1.17533500924471, -2.826629063786659, -3.8878094044928777, -7.549334016666671, -2.6660816701735985, -3.359450633451077, -2.922805437231856, -6.001022483243685, -0.7245458165208926, 0.017471879075132493, -2.389794036714366, -6.063746430669093, -7.888605321334657, -8.925298480298151, -7.185445615047591, -6.062585150826871, -4.870409335775519, -3.9397634044796894, -3.439771451914323, -3.918066545461229, -2.2719701169026445, 0.6069400418301939, 1.4743611804810004, -0.22289065061015403, -0.8436232348945045, 0.8223614638433313, -1.2801533115220256, 0.2838498109928986, -0.847910368609763, 2.5074852628072963, -0.09072868312503951, -1.9481464735849583, -1.8487310801516983, -0.46148780935613015, -0.5047641067053806, -2.0356177829625572, 1.9372279805180816, 0.5384211837242954, -1.192828989214411, -7.64411872140683, -4.119220166431539, -8.732764035998157, -5.93817041420898, -4.317807993037645, -3.247400736107874, -2.010476335132731, -4.566782202409667, -4.008122456978083, -3.002995796221462, 0.06882106962932347, 0.3661589891236221, -1.2274123423751482, -0.15712255433453695, -0.5900956967263211, 0.3768009009587534, 3.0627302422166665, 4.175799292423378, 3.3695393849981716, 3.1702437838588087, -1.6424596677170806, -2.094120210182178, 0.6925856581939254, -1.8175856035240663, 0.7723613516193801, 1.6716302611527083, -1.1867399092164652, -7.409297762449102, -7.98321392759136, -5.739325402060465, -3.4216861882929344, -1.7019570989636776, -3.0946728782584003, -3.377891934512479, -0.7280472106468137, -1.5442100937020886, -0.3774835292271723, -2.163293634456059, -1.0642030167998309, 0.08013993833619701, 0.6932718926835182, 0.43703220405114424, -0.056194781052015044, 1.4641902780503888, 3.0509555670443893, 3.370754432004802, 3.3461463121955535, 4.941984266385525, 0.6891673594322787, -0.8229243067754283, 2.5244523560297223, 3.465756957928994, 0.14165186993726586, -0.4368950254701221, -3.904625383028125, -5.637528049474621, -7.09059292487377, -0.376224730952528, 2.542756475691155, 1.9428151790701553, -1.9673863414178017, 2.7652854541942773, 1.8565439621278639, 3.8690036837706847, 4.243151043719258, 1.4174881748070676, 1.5688098933707277, 0.11912330583610628, -0.6460047973707683, 0.3303257454461411, -0.9879770786467804, 1.070581662982535, 1.2001765081044422, 6.796143140482196, 7.981668947537749, 5.0941989604563895, 5.24702038017324, 5.469815813163306, 6.089523630965368, 4.560949470366624, 0.7471899181164603, -0.1944283076229001, -1.2365971554417947, -0.15484380462318428, -1.4013543720781572, 5.014214611451589, 5.3197018037861366, 1.8328476229406407, 0.9224976472507604, 0.1326146191532093, 1.6244909352867218, 4.150917528449599, 8.543686772290778, 3.9640428966749504, 2.8640097045251203, -1.9107052652410692, 0.30091727364218934, -0.6485839735747098, 2.607094412236687, -1.4259759477834908, 0.7462141670917798, 5.824091002734886, 7.140151015763991, 3.953664834689318, 7.3107790845620375, 9.084103111856262, 10.895117428937159, 3.4992139989055038, 3.9506835912385085, 1.8599164615136978, 1.9227482499265414, -2.31224823257353, 2.7637898006935444, 6.800885367599985, 6.267940612699661, 0.5663777381873832, -1.7332006580371233, 0.46239855518355466, 1.8540224783871362, 5.578680605394891, 6.938977273125372, 4.1453653245269395, 3.2538400224493964, -1.2741580692788956, -0.015501747225556348, 0.3401034652246185, -0.22844033273575493, -0.3809712680567233, 0.1687721635095042, 3.1962666156333492, 5.365555632892646, 5.9861156473238974, 8.616429441893061, 11.397982281385948, 8.696744794422568, 5.744681133234578, 6.6309515171008435, 4.647237253862866, 6.2123000925008744, -0.28199699222581537, 0.05239947075772299, 0.02217114074412391, -3.628207117432061, -2.7594195834345387, -4.040048887126069, 1.3522449820489795, 3.630074736948374, 7.457871002800075, 9.468656881262127, 3.359079959728067, 2.298274867432563, -0.1426217372343787, -0.25922482077605624, -0.155972193167126, 1.0821355200024567, 0.039359266447223124, 2.137564361505256, 4.169702192974834, 4.52141863569541, 5.85900227433911, 7.281260985963315, 4.715569409388001, 4.496305788471116, 5.392671767703958, 8.410190177354584, 8.451639181459383, 3.5906582109869998, -1.5725907307124964, -5.828158166599185, -4.143008820263638, -5.991155018190255, -4.087117850834763, -2.077301680028542, 0.6283922365637268, 4.230230056342229, 6.275921749994851, 6.172555548108745, 0.5875857303133885, 1.0044704771185755, -0.17212560496408885, -0.8164376606281532, -1.0789392390705912, -0.7415102803385228, 1.6476129851437715, 0.9656123618680957, 2.0960091333557194, 3.3688648250124196, 3.0017155867627006, 5.250263085644781, 5.118609078267037, 2.3509045324555986, 0.5934747195279506, 4.863588358500368, 4.120401679778167, 3.0485930673497874, 0.5302611763909254, -5.773705440686072, -2.5588744293487924, -1.8066238133296266, -2.089524251786778, 2.515163221132633, 3.282327069840466, 2.952398638266117, 2.486836850833325, 3.7188602174738152, 1.148764267942922, 0.9617056807353301, -0.6453150870773806, 1.3020462878950452, 0.8208831053854289, -0.3954959289257248, 0.10211161544247375, 0.011917081076682217, -0.09442320976636175, -0.7152937282023464, 0.06302124804406345, 0.24840154394215744, 1.4225364243194696, 4.00025429438532, -0.16483835292385365, 2.0615611229052293, 0.07660627477249592, -1.5555762088037697, -2.56783614620359, -3.1087885295529247, -4.267207084791205, -3.886055616273287, 0.9280420382506158, -0.36552051603361996, -1.3763318537518103, 0.6295384653501594, -0.29183586200054823, -0.0729708210514187, 0.0457030704435116, 0.7541595094632, -0.32106300611941463, -0.16409351820687937, -0.21674479054787754, 0.19592141044864148, 1.389136907609544, -1.0730238409299706, -1.6358458133545126, -2.155007785367837, -1.578379627494951, -0.9018018121954892, -1.6958110019262609, -1.979636602028395, -3.731693151894977, -6.445398935919147, -3.1510557733471822, -4.162097810410858, -2.068304547907724, -2.6609797596725984, -1.721033564339659, -1.2880305685312674, -2.659415871928594, -3.7052435987512964, -2.527228074587847, -0.6739641886917516, -0.5121711077177883, -1.0533435244952811, -0.40285711219784076, 0.3803188710827585, 1.2264334497418885, 0.18632340884298973, 2.314596566072435, 1.107262540546151, -0.6949408600236161, -0.5273386073479316, -0.8587753656944478, -2.343314952838342, -4.0246468313869, -4.028546122337024, -2.3642518589232067, -4.041291417908702, -6.4434404507592875, -4.5196610017355585, -3.6154296783562643, -4.681821015326325, -5.585264388287471, -1.5527421614471077, -2.2653205228061286, -2.54250425167839, -0.690352493817105, -2.2041073539369, -1.2471024538401945, -0.8652346168084604, -0.682265977662733, -2.8372833697397253, -1.5349360146665694, 0.7098150269659627, -0.9822081612623897, 0.6219351477587555, -0.08541127383807015, -2.15734939275813, 0.1845024518009302, 0.7585767426659209, -0.17230985737541885, 0.10632676609328205, 0.6443420983919067, -1.6066399430168765, -0.0030441709496055783, -1.3662506871527416, -2.1174723412386176, -2.1674836242768563, -0.9995433695507375, -1.1037480935300732, -2.7632808148439607, -2.411525564095368, -0.18893241196097524, -0.4680591350157181, -0.6090137996516327, -0.7761581791535457, 0.7484111044771388, 2.546935688403692, -0.8002479219085865, -0.5259556564158728, 0.23018366219729874, -1.4989781092751895, 0.4157602918345433, -1.988946003167204, -1.7033402161570617, 2.0625245635179703, -0.12378254702071893, -0.8166194880866573, 1.1551513215723492, -0.9386050373370987, 1.0431203260824935, -0.6938161253237026, -1.0701614833433541, -1.414750089460223, 1.5954484807499731, -1.0836026533144223, -2.0649448744521313, 2.182296834903042, 0.9322977943473344, 0.9318513413722326, 0.4127861428110365, -1.5450792769557258, -1.441915711491211, 0.7068452817207699, -0.8769101572499858, -0.04445559417658838, -0.3491645777986052, -1.2404060389535805, -0.40569129803954607, -0.5173247216668452, 0.26982401934048145, 0.2806182099735247], [-0.0661636006776742, 0.6758791678365597, -0.19255889227887474, -0.06977986992312953, 1.9985580313167852, 0.4044926136447304, -1.000155093484703, -0.3038594004374588, -2.5968087993920705, -0.7423739380842216, 0.11570390951584322, 0.5262138734245548, 0.1293051990757179, 0.25978525879062647, -0.31738335361936254, -2.2304548695622035, -2.0867083684696186, 0.1847169008666557, -0.48226375059927545, -0.8870271040287157, 0.4529482919676122, -0.5466480068890693, 0.6637910809852252, 1.589851496017376, 1.5987786104254826, 0.9273687320466283, 1.216764522261231, -0.38956145008831106, -1.562348925609427, 0.5658313473140413, 1.719020271090947, 0.2073867026339044, 1.0644217549773574, 0.8087413489005819, -0.3635756070429881, 0.4715624433484742, 0.37057953977432734, 0.709133022282215, 1.6815262695829618, -1.0272599083212492, -1.0108864895177587, -0.9682759729713525, -0.17144577689813761, 1.7248033133826821, -0.3452839588173559, -1.3176864272274338, -0.5375200199058177, 0.04005228134705165, -0.6791871035531993, 0.647246149150115, -0.8725848159786426, -1.027921155374016, 2.086172532820436, -0.8479777839744839, -0.5279696944541298, -0.11719747738172394, 1.087518959014812, -1.9953024919468698, -1.6078629924588694, -1.2440004130984894, 1.9983612194232112, -1.8820995400985803, 1.3721203099082657, -0.03618873196832357, 0.443936462655398, -0.7689009876274633, 0.37956291677547066, 0.703305016355605, 1.3958433999045012, 0.5096992523369833, 0.5425821140781337, 0.11439769809864006, 2.636722271072726, 1.5774843505053282, 1.028953033228444, 2.1755527025096812, 0.4607515310934014, 1.4712738358630932, 1.2632887034454556, 0.8647053388397652, 0.9101117417855533, 0.4688250163473007, -0.9104108558266061, -0.12029762458003572, 0.34516424822221886, -0.9426392217014956, 0.9929426067394298, -0.3021607418303104, 1.8948561541187854, 0.6301633195807252, 0.11191894478196462, 1.8404955114140105, -0.719270188353337, 0.7456942518916214, 0.8661892742336702, -0.17200694330754374, -2.3433473944629823, 0.6922522226935852, 0.5109160596181627, -0.255662064705687, -0.49310468308267, 3.1752247168364858, 2.783631917512658, 3.8123888922683773, 5.088043024935219, 4.150145513146544, 1.5540700648020667, 0.9942624719640466, 0.8624623636000532, -0.21662906128838433, 0.8238332216952795, 0.7439851141210404, -0.4557223538054056, -1.023776883210584, -0.732860088125289, 0.2823566144961897, -0.23063121840515255, -0.9153416946636836, 0.9041188596955388, -0.24224712275403262, 0.18622562258408518, 0.28190673970204017, 0.17178666276081228, -2.3742057365652296, -2.5303281992346727, -4.516130840806394, -5.2423996799940795, -5.68060748007818, -2.7145164734600447, -1.0285266539933884, 0.0024028495064291294, 3.9902511064100126, 2.1175447511423324, 4.554523101055314, 3.7921739326720156, 1.496790849288134, -0.1414783814020469, 1.151704040881966, -0.47061525801118986, -1.0211106859450496, -0.993144810937736, 0.22143809910825876, 0.5614589892718959, -0.6248502140739479, 0.028657009336142902, 1.5820580579947647, 0.5557974704145833, -0.6500528351760477, -0.431085163897066, 1.0071526818168508, 0.8699419423030327, 0.2342291381528184, -0.119850068651959, -2.7740708542777734, -5.716520129363223, -6.195130746463956, -5.486716913331499, -1.4584708978623517, -1.6063817173865114, 0.15653290180109727, 3.5410453719679436, 4.094280819872349, 5.116227940844379, 2.663398276308557, 3.75333574658646, -0.020148804997564947, -0.942727394749935, 0.4119920669830445, -1.14173071643997, -0.6675156016660794, 0.4679317245488429, -0.4498248897612643, -0.07447244030823476, -1.1954475895176735, -0.09354007872975942, -1.4929201471255817, -1.1453820556492156, -1.6398196338061721, -0.8465423281049324, 0.16436319064197558, 3.4901676963107913, 2.016984812259607, -3.720221633238027, -2.6945809339819005, -3.750832505635197, -2.7265271962390822, -5.015204584455832, -4.986517966487994, -2.452163198860897, -2.3838331530829264, 2.696573587264513, 3.500070351773035, 3.2717444065230694, -0.9396354583828147, -0.037239245851841976, -1.6052584039388826, 0.26991323730685296, 0.02953358958409794, 1.1479706320884573, 0.06109283661092328, 0.047759945803829064, -3.5178123876252965, -0.9077917389698617, -1.2802074307848634, -3.18446925816944, -1.0868929025997152, -0.9160654186756032, 3.015043141735641, 3.8821902428017214, 3.1972904749450013, 4.217542073547055, 2.717757389798751, -0.7352056262152344, -3.4602436950523088, -2.3741860334305622, -2.628905642031609, -0.7204937204428473, 1.0658029885564104, 1.2411268139369347, 6.199906902013151, 2.36148721319542, 1.5113156015217115, -1.3018991720326512, -0.05723996363031456, 0.824234632593605, 0.0797160399600751, -1.0679973837678565, -1.1588490241486322, 0.2954496994726465, -2.321876071868021, -4.396819448089712, -2.9825950425250802, -1.9770122148867106, -1.0944462819601735, 0.09507610054257946, 2.7068062420545447, 0.1996175108393052, 0.05169072008339768, 4.666823188925412, 7.062993332485941, 0.7471272774482022, -5.598933489462006, -3.3567386596698334, -5.9316073240353315, -1.5883589129134592, -0.07211248461172302, 0.9334905939545326, 0.39504313420224724, 0.18557893279476825, -0.8167354361631901, 0.9510307052065787, -1.3203108681016495, -0.5100762462297701, -0.877752287358111, 1.1370748048710466, -0.2837081775439783, -1.43454938897305, -1.1883493151316116, -1.666593723215946, -0.5443210634241415, -3.971807640303145, -1.6755081879125926, -0.8427001553797491, 0.5012381992104794, 1.0608586489723117, 3.7745435013275674, 7.70518732231301, 2.341936741272779, -8.200733078377102, -16.067805424927688, -12.897458296197756, -7.864704831891285, -5.855627160511009, -7.866458416953722, -5.8750934278829545, -4.415858249071439, -4.6635613833533744, -0.0035268368597624953, -1.6295222170120298, 1.8049750027531468, -0.7227192686335359, -0.08933934735938796, 0.7662311603031177, -0.38167094948570013, 2.3890326917108387, -1.5566638785592688, 1.480398602602221, 0.3196979083450662, -3.6493029094402116, -3.447277628552248, 1.0634830423051285, 6.785626366680813, 11.270211911682278, 14.68285840321142, 8.922750165110074, -2.7929032190329757, -15.67356125756694, -15.482787676846034, -13.142119131779197, -8.131003593490496, -10.4074064155422, -11.46984501126545, -9.148144396538962, -2.6334912108851323, -3.698928454414166, -0.7529549692917543, -1.1039745172297333, -0.13314863373498328, 0.7274801680980789, -0.7974746749772116, -0.743044894172298, 0.7058621587352826, 0.7669491391812202, 1.7993666829279762, 2.0977944043101204, 1.3011824099632596, 2.0101413597378226, 0.15707130121390547, 5.862709262794496, 11.382293096665125, 18.033459861753766, 15.22641046708484, 4.957163960168484, -3.7467392528019614, -10.83702008101073, -8.471235468162424, -9.072453672639922, -8.14233239341777, -8.081207010465292, -3.8188301457710714, -3.946714036633917, -1.0140503272124142, -0.9348367493596843, -1.831566630707108, 0.8581537938352058, 1.3754016779360174, 0.9996330884206553, 0.0009721017165341325, -1.9203729611145328, 0.11393856622925497, 2.4750804468733514, 1.0809540080935798, 4.518399560070418, 2.5420635897310384, 3.7351536540337467, 3.1720942071276883, 6.228613767703262, 12.134727452862638, 17.219573359515998, 11.135996175589309, 0.6248164647288283, -5.644228753693341, -6.507012617587771, -6.313010187203548, -5.101307984408478, -6.482199240331062, -5.250618354536474, -0.6910524956540912, 0.3920085156098741, -1.183303572774384, 0.9068200053768954, -0.1587563154642266, -0.8322523583204442, -0.45129779642607826, 0.49578814517372094, 0.5521628620653634, 0.2843152034819883, -0.1771873646255238, 1.0703314855065413, 6.184539733406027, 9.188614412646508, 5.07788394257061, 3.363977554639696, 2.0252462690180257, 7.881191158102839, 8.116240361099905, 8.997719184211885, 0.5592714307121168, -5.459954048336941, -5.776442981210526, -8.465330429232132, -4.508565704853293, -3.9304182971028716, -2.4047534412547784, -1.8955219397056402, 3.029475737435361, 4.255224411872353, 2.7952242715573865, 2.7183213812116533, 2.063967893823182, 0.7231470790036462, -0.4421661756342533, -1.814144390615466, 0.9285867163926995, -1.1590257327978677, 0.29441655848522946, 0.7815543628791888, 4.891420940711225, 7.957129399474168, 8.503814591219685, 6.1245518566992025, 3.3118644558265187, 8.335543410259794, 1.9986923962886753, -1.0527834735400812, -5.581737741670629, -3.6000154414536967, -6.700143036716341, -8.78472593334983, -6.6678256150062225, 1.6263161710059408, 3.351373793527508, 5.569307796201448, 5.966213487800927, 5.52583726978977, 5.131467582878802, 3.175570185085244, 0.07740288569995989, -0.817926176985652, -0.6306472556978284, -1.3184110302155956, 0.07912837104989759, -0.37743063317038167, 0.14306704914019372, 1.57565461289855, 2.9814601398530196, 7.182494076877391, 6.212527166458448, 6.313217094380314, 2.0344960191588743, 6.4582619683502385, 2.6079105921952745, -3.8591350981979486, -3.694638414257861, -3.3616057797509717, -6.247228911454114, -8.50269223730193, -3.422348310546967, 5.225554726677367, 5.601321495644623, 4.851445460428032, 8.215637899118734, 6.442190204232788, 4.54810999189031, 4.031245873337818, 0.9459524677709226, -1.6518988030438149, -0.20580078391153345, -0.4934685826940392, 0.08920292628038698, 0.9632602253934109, -1.340687473992926, 0.8549045551012736, 5.7481950040716665, 2.798971657007133, 1.9050531267332638, 0.6723354733812912, -2.2802119194667503, 1.392294516040829, 1.6220181039620913, -3.244722641116499, -1.2917253798878212, -2.202942031437367, -4.980440966107823, -5.067012691832133, -0.5221635776434113, 6.704545829218462, 4.770255909896948, 7.071005329328543, 5.690404486616397, 5.573590715372254, 2.8142551761066126, -1.1953565151968533, -0.2175223826193969, -0.4873621993506553, 0.3636189841882318, -2.5567531918710755, -1.568913638250195, 0.06563236649580466, -0.7555311163549245, -0.034192549065956514, 0.910668254645685, 1.509237102816514, -2.7494271767183642, -3.153087413002131, -3.4629891414569816, -0.6304619103872133, 0.6227555422312862, -1.5292916813516622, -2.2628428925900606, -2.866713913153751, -4.276575599641326, -6.311840410981801, 2.120488076190352, 7.23055356421682, 5.730355157979805, 4.481911402179647, 1.330744789755815, 1.761882224774332, 3.149191930213962, -0.34953070201533887, -1.5531823960458695, 0.49553570161722543, -1.95363576646142, -0.2974618398625709, 0.9473978982451383, -0.030503146823166006, 0.8328540062733588, 0.6008608596995493, 1.3387085324835724, -1.2589684619422843, -4.026612281041564, -4.285049758930688, -1.375025081015283, -0.010187826321830363, -3.0339838745791594, -4.543800172357926, -7.1985862424279325, -2.7930385714553556, -0.384821722769677, 2.973769171401188, 6.848813517254791, 4.000870911819652, 3.09170280986031, 5.528914106393582, 3.1054109988455303, 4.3485205072894235, 0.584678617789474, 0.3636336199664891, -1.3850517544162586, 0.4353663261219991, -1.04664353738381, -0.4875747414410782, -1.6649695717221076, 0.5601500145557489, 0.6125851536427417, -0.9323543933059563, 1.3383529573292559, -0.04510346021990763, -3.018660961959851, -4.009886633530096, -4.8189509146760665, -0.6091836598320749, 0.18547852155348973, -3.076843015224599, -3.653698399675048, 2.5213416995556845, 6.8081913313313995, 8.048420527701587, 5.755628605404458, 2.8523935250377948, 4.110381364108018, 3.2006316961214103, 0.5662258838583317, 1.3954956264746003, -1.8209987165613404, -0.9381589000992373, 0.6393705124568576, -1.8561278979698752, 0.18227799000258338, 0.8428078431913709, -1.7457585757174623, -0.9197267437278436, -0.44574823236348077, -1.2874961745753466, 1.4437330764619547, 0.0972963425824712, -2.5671105470588436, -5.565852207056422, -0.6537310787504566, 2.078987595612071, 0.4043633511531228, -2.1425937230919634, -0.7953002281354967, 5.925982629262177, 6.087739914421919, 4.752136712184593, 4.0676485210591675, 1.7456510423228853, 1.7831745425235668, -0.16972382970489938, -0.31808205298618875, 0.031141256591180295, -0.5515336725486502, -1.967361416505746, -0.16992049084036934, -0.944733771411765, 0.04045041066412574, -1.1560812051570275, -0.08840952029909271, 1.3134671117569026, -1.737311597711355, -1.9709358114701434, -3.6729654921398778, -1.6465488038447103, -0.05313592391371297, -2.1855358765352886, -3.6209487685607926, 2.2848868543300784, 2.726201615938271, 2.544776436861203, 0.5676637852671235, 1.301310099556805, 5.809209363955909, 4.710651400388813, 2.165743898928127, 3.8774512016795617, 0.6489425587296094, -0.8501140384631409, -1.0858557999291316, -4.0309500081995635, -0.8669041489395222, -1.0348605906387687, -0.887792333656134, -1.493159720542461, -0.26248329049203595, 0.10166928290271633, -0.3289875631817082, 0.09771640125175644, -0.9815791971739946, -1.8243388820504307, -3.3970282328285855, -2.4371520325996316, -1.9903285672475992, -1.2786641557535974, -2.4012213122429698, -2.7314491490057744, -0.782554127356334, -2.4626165463281233, 0.6394903381742321, 0.5798115035951147, 2.167774924439969, 3.021239942850014, 4.4525049740439595, 3.049232893513114, 5.71370157300889, 2.1184310143398126, 1.7935951506021075, -1.3788985601957235, -2.1644909316879226, 0.09219601624287256, -2.659585059447254, 1.0796458953228774, 0.7191209209802756, 0.1402724837728306, 0.6767672124805916, -0.8933372276838688, 0.6934097452714929, -0.7850242344142148, -2.3824774657072996, -2.201350041034135, -2.770129759784644, 0.8739404799703898, -0.8962441999367483, -1.0674548308205514, -5.524147742144015, -6.106582112439258, -4.369422393662989, -2.497874691113853, -1.073135385199477, 0.5607741863382851, 2.5730969493573728, 3.7233968808073112, 5.15965191146713, 5.456664577587766, 2.9542600015822464, -0.3819726505216892, -0.4560272906253523, 0.887170263492293, -0.26396994158167764, 0.82422967502294, -0.6259507603230963, -0.7915033484481085, 1.5159726776550044, -1.1831444493678305, -0.2841190851882007, -2.3011584851823175, -0.6216221013261527, -1.7683009890101116, -2.513942930019132, -2.529610163805348, -0.8984515361021691, -0.6077782365446801, -3.4246908272628778, -3.965345536700126, -1.2592229889701065, -1.1197565198663242, -0.987111880778782, -2.2562578525684875, 0.10396974587343263, 3.6899393146008888, 4.342503679848849, 4.475473702588623, 3.5970378940722942, 2.1078967830923006, -0.6869100301049846, 1.2202917300971146, 0.6430208815069977, -0.42113859453716673, 0.9883275518395629, -1.391871281193965, 0.7139545620318081, -1.8045362654389705, 1.3397598785953677, -1.1263680231450197, -0.36751321302173634, -1.5047628009260106, -1.882744962384227, -2.2690142486736504, -1.9967396738655263, -0.7388092600636085, -1.2349935473326321, 0.6892436341704689, -1.7578600878077992, -0.6007735932690621, 0.38048240214809864, -1.9045645379756146, 0.43949990949770795, 3.7264470942284236, 3.0059537963048832, 1.2017382783658994, 1.1219001784291762, 0.7594801519439132, -0.14930053493337433, 0.6403216022682593, 1.8467391734856213, -1.0388756807452126, 0.3089228025702844, 0.9262438604762734, 0.15779500103794963, -0.7602211133222647, 0.376333457706169, -0.8891230423672691, 0.08242375008127399, -0.8655911601613241, -0.15676393167192867, 0.7292772175633582, -0.71196323363575, -1.3586203112977824, -1.5902650145088633, -0.1969762298135571, -0.16160165647587504, -3.219038979455675, -0.30774634998972894, 0.0007325351142176859, 1.9823981727312243, -0.2817745491403134, 1.7092147653074332, 0.4910057301187774, -0.008122632875578368, -0.20936956058942477, 0.1543747448955932, -0.7470018760836084, 2.044101558719724, -0.32081708229818445, -1.2031361179280493, -0.7808965151108107, -0.021124263634281014, -0.8878289437373695, -0.2613189490649724, -0.0224268901549815, 0.5605801250087334, 0.8526006734364597, 0.6051571401632165, -0.2620172361850597, 0.2137769357672151, -1.2642929954213373, -0.7141563105007932, -0.3092039010635596, 1.5916047846551418, -0.15762885781805877, -1.1086678097349607, 0.1361494065946283, -0.23151490981338096, 0.9957723190586909, -1.090304657201231, 0.05011694676371167, 0.399228264801736, -0.1842115590837085, 0.6564174800275099, 2.4484713083546774, 0.5100195460103351, -0.6099528989344671, -0.6022366494890528], [-1.8886673132348597, -1.6659927262214462, 2.2983124685365643, -0.22469158805893616, 1.0095387842116013, 2.1464739698411117, 0.6928529395187932, 1.3228830368993159, -0.27885456449972224, -0.17230477442439723, -0.10714519360756493, 0.21694618635205, 0.6931571100699491, 0.36462838932821917, -0.48615492103111474, 1.0404481115023543, -0.14511124691994567, 0.8887209723741857, -0.08057966556932665, 0.5223768974734472, -1.303205528959897, -0.4750365976406159, -1.2725833515775031, 1.0674174574855655, -0.45444670055946085, 2.4760319117479677, 0.9732390164615201, 0.11737248732402583, 0.49093276123716323, -0.8053690792195064, -0.14610821100677696, -0.11785713429655717, -1.007049348921317, 0.4779241574889813, 0.47068331809592207, -0.5078960568919848, 0.3650555111464108, -0.32763931128366564, 0.3777240414116719, 2.435484494166031, -0.7851276288065152, -2.3448815243603645, -0.037374977318153056, -1.9799524835772084, -0.29007567079591606, -1.417135251865446, 1.707054212085968, -1.2151394606149937, 1.5892496868594514, -0.24213415097595894, 1.7194070463830682, -0.07413562383273146, -0.2554228239444681, -1.3639175878078147, 0.5514075599568414, 0.9585307237915524, 0.7345739372975868, -0.7195790703356094, -0.07728168752753029, 0.3517540265655792, 0.15773392282375348, -0.06412602381694577, 0.39478157474193565, -1.786727849649539, -0.210178429068694, -0.22150679013311406, -0.6612620652182054, 1.3583741382812093, -1.4581477877652982, -0.9789811288265773, -0.7968410792928633, -0.357306568816619, -3.17712228022437, -1.0953749779087552, -0.6526680975719478, 0.08923075921805769, -1.5388674631343378, 0.9998194452883585, 0.021700213128127768, 1.2092976099283999, 0.18902361820046637, 0.9973301247049804, -0.9969042815914596, 0.792600895485598, 1.1787766639891157, 1.0538423167572866, 0.7722105787463233, 2.0413338074325993, 1.0358441431372232, -0.31467344182958107, -0.33039147302004634, -1.507744611841745, -0.4110060718546766, -2.044872917305128, -1.853355857936579, -0.5224022435296289, -2.116725911878692, -0.62612033763083, -1.617041160137943, -1.1559187165537972, -0.7396007891911784, -0.982338763043519, -1.4634026317073596, -0.8389346371565038, 0.021600385406677778, 1.8898080505535133, 0.6152405127736096, -0.9246932615625777, 0.013964090231846464, -0.8808052294100749, 0.5930236753472701, -0.7194441831900749, -1.7604207640144276, 1.633466366178603, -1.3549509422083512, 0.25901803635702775, -0.8511380660381168, 0.7866185313837719, -0.6660516019622126, -0.1680459774655158, -0.8968263693485196, -1.771217725810828, -1.6464984815984505, -3.806246164536896, -1.8133008792737582, -3.4726865331314882, -2.864275565702595, -3.5123192710432742, -5.3930187782801635, -4.4896385806574886, -1.7139161137371575, 2.1619469304876886, 5.3231645929002545, 3.600350009855082, -1.1255227663991645, -2.9675158251915263, 0.9741992960737896, -0.8751222199113949, -0.8401447517753499, 0.45718446386679507, 0.9330374444142099, 0.45490925065469306, -0.2808112833040444, -0.27783039811974397, 0.9901659756215907, -1.814738972422277, -0.866227190324322, 1.6007315567961138, 2.0864727531214795, 0.09269373784192737, -1.4472944737421771, -3.406127687314924, -3.962910455976377, -5.371958768172747, -1.9622966512084188, -1.1868463528693622, -0.24542268973756115, 2.1185853352471433, -0.32133228087774834, 4.58702992896199, 2.401834393584725, 3.6130441730296132, 0.628002483803056, 0.4329941134743026, -2.1168608842284637, 0.6259871526649837, -1.4325319291008836, -0.883808631092514, -1.2741527813281903, -1.6213986001694967, 0.3783825642433814, 0.2373611329554007, -0.6048928949390034, 2.989930855988937, 1.9761744285884324, 3.21108114802806, -0.7970012649090396, -1.4536508255515956, -2.5103175385658125, -0.6520136784798446, -3.588573300303688, -7.939846298336331, -12.881914840410609, -10.03638502952365, -6.67608336142577, -6.982698118776951, -2.740256933776919, 3.5247235002709143, 1.7299354578647443, 3.4704107952344474, 2.639151788276043, 2.196983879294239, -1.2188051344783135, -0.8498289961291375, 1.0739083302620924, -0.20849428910514142, -0.9737033918881698, 0.8767864948597213, -0.1282470725308039, -0.4606968093369372, -0.6540063457225181, 1.5190142495489927, 1.983554381861217, 1.9501021157590268, -1.02898186232984, -0.4819516613544424, -3.0910835699633066, -4.557779808858367, -5.257715800165522, -13.70254771558465, -23.897851099051284, -24.21904464055526, -19.213836105647758, -12.731709300632975, -7.092586753283194, 1.1572639623312517, 2.095566519324269, 7.874813383272355, 7.5492399329810524, 3.6420176362491494, 2.9883861488499277, 1.599669100910143, 1.2910876000776694, 1.020720068795995, 1.042266181481189, 1.2200587019910492, -1.4607214468388476, -1.5627533505705093, 2.746573695473755, 1.3367595200101194, 3.4355690748336087, 2.8217652323984557, 2.2611579609575045, -1.161698214597882, -3.2196405081039883, -2.1666187331839226, -11.717858983785554, -17.873658770914236, -28.40942628020593, -20.52545689152567, -11.209488317908743, -5.119480756072546, 1.5962146600413722, 4.829004421556759, 4.94202382324194, 6.568495770670988, 4.9979975038173805, 5.335433172722632, 4.435013647036747, 2.882313056520647, -0.21358526457941754, 0.5879781635545857, -0.19848022035212395, 0.5822201830308692, 0.015190410264090194, 1.6820025887750782, 1.7532853503964405, 2.281844678198211, -0.31439398228770193, -0.6359387629446671, -0.6460754706247634, -2.4791038294860535, -2.1933706024575543, -3.2024620988439567, -11.014844931918441, -13.063279603824995, -16.859284829669406, -6.146083029026633, 4.73201137695417, 7.069997364289338, 4.669330293637987, 4.383231286987149, 5.342237815524758, 4.952570032322141, 5.360842011379302, 5.44007753986998, 2.4581074401980048, 3.162902163329493, 2.1758262121708456, -0.1438173865763275, -0.5960329570544691, 1.321998666517147, 1.0361128084661766, -0.039460566431836736, -0.757202926612281, -0.30292495131978386, -2.128112028005825, 0.3470092569470526, -0.8049899688237808, -2.1470880697837984, 0.2843871047574866, -3.08684219466223, -0.9158496338853653, -1.9972837917384803, -7.16232489467307, 5.2156824073389085, 12.815119430754743, 8.099436369137862, 4.946231242469282, 7.598743856146065, 1.771983255340435, 4.196850736411104, 4.76990940475776, 1.179536618216256, -1.5493896238136873, 0.2604817604454223, -0.5864706197281455, -0.3696080327290994, -0.4876869762822629, -1.5116761941987573, -1.744715087555305, 0.8394089572940714, -0.36301464082127705, -1.320625140197199, -1.2774875778827939, 1.5099765191816332, 2.066054387791109, 2.9173053571450858, 4.193064431368481, 4.679200720357756, 6.099122406073716, -0.16905149614840556, -2.1322777697899014, 1.9709790084024656, 5.136761162478548, 1.414696580585956, -0.28227959188807444, -2.88632766354757, -1.945885862791437, 0.14173952345232238, -0.9282944753502239, 0.4060313149881592, 0.20097683218615622, -0.783723407990654, 0.18471859020109963, -1.8325339218131884, -0.2392095593725501, 0.1756539518484628, -0.8449779951801804, 1.1875606445581512, -1.4298684945856843, -0.2332532379202137, 0.09535949857208939, 2.5228022667191983, 5.413159790062808, 0.5045781363566351, 4.690001884186965, 7.617117403845304, 3.9799381089954893, -3.7174221914052645, -3.4478878393702903, -4.18295565083235, 1.7607087701282393, -1.4907886808013873, -2.9376268588164742, -3.887817891444796, -1.8903022115632073, -0.3385935876294235, 1.7082729259602822, -0.4811562898441397, -0.23310932360637138, -1.0212789093965562, 1.3107249464442186, 2.3005733260068744, -0.8942740872447914, 0.5657973494070045, -0.9416241088153967, 0.5786748221716895, -1.6578576451114688, 0.24667427419052554, 2.7833555270065413, 3.0927206278874855, 8.665654125227272, 6.1404862368136435, 6.75188374897446, 5.510946922583252, 0.6272309945574953, -4.82068405609202, -3.5913001504088804, -6.494256392018704, 1.7426831082223853, 1.5042440106082005, -1.6398196016419433, -0.7238826064994526, -6.3224871172589205, 1.6114208198241058, 3.4013004149882526, 3.100754283934796, -0.5096709706661833, 1.8960136545839075, 0.5354057494882245, 0.15194171356806385, -0.9929087294838347, 2.6629285869112733, 0.873542583073024, 1.0615140691302496, 0.04421593789467482, 2.6534746893224574, 0.41841965535202885, 3.33410514505586, 8.894139058054296, 10.795090693650224, 5.175689751785641, 3.4538197180688575, 0.7059851746872713, -3.153924696269651, -0.40096217379849847, -0.060540250834251956, 3.1169231230730814, 3.2812115733625578, 5.268070599752932, 3.593263019825121, 2.310986495692953, 4.291290506263789, 3.960328580711191, -0.7728662390007482, -0.05645086468860072, 0.23369689709041305, -0.8851942039908017, 1.6276634274293587, 1.6671251068146222, -0.9614066084037137, 0.34859781206655666, 0.3271697552238028, 3.271922123523655, 0.6774146477555175, 0.34623512809209434, 2.5835352465352983, 8.63444721221708, 8.918374225675636, 5.927753418238842, 4.697866975813571, 2.577844639027878, 3.56291493765191, 5.1785277963012035, 2.524477565490588, -1.4880178056204287, 2.5908798185256185, 5.877653296841352, 1.527898525856486, 4.05901615397531, 3.1699127730325354, 2.4419693126220072, -0.41797022739058204, -0.849072319978943, -1.714215349977275, 1.1737780172262988, -1.0296249857413442, -1.5210152976541542, -1.2838751282741783, 0.12642179551760024, -0.7758247855011049, 1.1507799111837222, 3.629353572871986, 1.3948814605785202, 0.8306230618462932, 5.197363025093081, -0.10431130065534792, -4.389227558894832, -1.2928673429295099, 3.1118945345996107, 4.641766801728526, 3.9569300881010028, 5.45975181571621, 0.05922210674980481, 5.828919871280359, 0.8111545411426365, 7.576512412100407, 1.8352913197044058, -0.8092665132850969, -4.258379972249875, -0.4460901768207552, -1.41698277543364, -1.8976043505059652, 1.1496617300095002, -1.960444966469452, -0.2903284900997851, -0.12348915591532321, 0.9651981842980454, -0.4738632892178135, 0.6142076435688534, -1.3940907167336631, 0.6479451251069867, 0.5276414641312251, -1.425936084433757, -2.305625096911995, -4.964118309221469, -2.4120537614409754, 2.498905096155513, 4.604836399283647, 3.316496395616301, 1.8062097501158256, 0.8063398178088002, 0.858773712258611, 0.7465379930575741, -0.31168738342201946, -3.546284727675182, -5.493088849867599, -4.871611263466383, -2.6196617878961517, -2.6371246728439655, -0.6180520331559765, -1.1553747936717085, -0.6904641160530188, 0.27724829320198896, 1.3988359807478483, 1.2344158079583767, 0.3516133853037961, 0.001558411733480528, -0.49812007446074263, 0.7260883489849854, -0.38195518725200983, -3.904231149994604, -2.9404886585572507, -1.5575157687831798, -1.075363759317471, 4.171674306928305, 3.101682133664037, 1.1864764684658868, 6.010647401608126, 2.97969797416725, -0.0426098925082193, -1.8935013310338495, -5.03392713842646, -4.5352978168688685, -4.944114403522466, -2.462808520950311, -3.8148208179938767, -1.734600988335371, 0.5679095805056569, -0.0872304200403698, -0.6238384525893829, 0.7583089013071584, -0.07873039491785011, -1.268227951425015, 1.5844967565749732, 2.2476369556688054, -0.2932211518408542, 0.37889411127747175, 0.37996727680937853, -3.2290504743499753, -6.01953191375763, -2.2688348226006516, -0.37247263642157, -0.30362611316337407, -1.0185268662078586, -1.6328806484836795, 0.7607987964699062, -1.8385881068176921, 2.108474793859217, -4.120865786919338, -6.959204518987417, -4.264201091687164, -4.848661351393078, -1.453485769715695, -2.4844774366730067, -1.9341962554170518, -0.6332256246693894, -1.052296867954819, -1.4537012509888527, 1.5026275092723986, -1.3485787482186853, -0.09040428076948315, 0.8672413820119341, -0.7841980461123254, -2.230716543189533, -0.9225729568363951, -2.8338710075861147, -0.0017199808996810088, 0.7476807951424578, 1.1196674204191837, 0.7786680441750742, -3.1365556633235854, -1.1336520050839916, -0.3093432576869884, -0.24280981156250356, -2.354514809235448, -2.9651886370387164, -2.3482622310201227, -2.8288069494013075, -3.6867983350676234, -2.3293827163779945, -1.2808238766473659, -2.059456982042863, -3.208255556588524, -0.19842993615257756, -1.2550274939392372, -0.6700293973334432, 0.2859650118191792, 0.6957691766037297, -0.8019304626814204, 0.30251248806685743, -1.0320791448269138, -1.156603222054241, -0.29458655533229955, -0.1522422780941263, 2.0751907824356453, 0.8162759121206481, -0.6643186356217058, -2.0123485541898973, -1.7129365929381588, -0.43401961141297957, -3.133521109585314, -2.8624288139389225, -2.768635234218709, -2.427147921517557, -3.0163133832641877, -1.9026713006686353, -1.9832392674503656, -1.1576778024581418, -2.723625604193482, -3.5355019733691595, -0.4398550426319383, 1.381507381170581, 1.2027618493710792, -0.0868202241421718, -0.9760130113285475, -0.03113725794881292, 1.3879886532025425, 0.028120569914143422, -0.4324429054585756, -2.108493737128803, -1.2998244134087105, 0.06843192198549898, 2.0718864975520117, 0.18626970620069225, -1.9624538630543096, -4.219133624993075, -2.1160228437066095, -2.220487489042981, 0.27952305790746906, -1.7193809563086422, -2.095146024794789, -1.9189609582905731, -1.9238906697920206, -2.3081104983676366, 1.3133208124924447, -1.135304910566021, -1.4283537562500086, -0.3846423417034796, 0.7424336800905951, 0.9224325369568201, 1.6419743335148251, 0.6322431201292977, -1.9616916348282423, -0.028297418702206405, -0.35612056171578943, -0.09728085643555599, -0.7765423041594682, -0.24207674330103968, -1.7590344002507354, 0.1678800335130343, 0.3102999285136616, -0.05929836428997691, -2.2425763119447497, -3.811276359781285, -0.7271460042520439, 0.5200353199673682, -1.583968669395044, 0.9475935584924124, 1.2341362514216057, -0.7121472135456912, -2.7338831019455534, -0.8975691523033241, 1.1787069099122922, -4.586671305694539, -0.3507378205146984, -1.1840544091223226, -1.2944870004912572, 0.22466492222392176, 1.3984889139349577, 0.0572982653679471, 1.157703524064366, 0.26664710123093094, -0.023376267443923304, -1.93431462087108, -1.7285711410331375, 0.529910920969264, 0.9052302191419688, -0.7793263209522927, -1.5353977707709165, -3.4035812397581453, -3.3103776559216747, -5.034887064251935, -4.4624500776764835, 0.5167215839015938, 2.305914240609761, -0.7813139968215538, -3.4700933564358625, -0.7714658914381325, -5.059173318678131, -1.3271065264409714, -2.823701669432422, -1.3335053286876823, -0.611500223993617, -1.1761064179097067, 0.012546237047317723, 0.0004826415999999002, -1.9440429272543949, 0.7812668311786687, 1.0939163707522803, -0.30249079527786005, 1.0387802907295478, 0.3384651166043418, 1.8731225852955127, -0.7731953652261359, -0.16901327287931217, 0.4312141693557295, -1.6853638708820189, -1.7771735509761186, -3.3016795211499472, -5.405754979433133, -5.191174799654817, -2.8204864038395705, -0.7683437760515591, -4.192452125900456, -4.6165728070147125, -7.013019817674336, -6.18859052022361, -5.456198974875476, -3.0681673019291584, -2.653085891263489, -0.4177868269092564, 0.12703818097295957, 0.19995938354029366, 0.4268835334724478, 0.20154562044520943, 0.04939710045082001, 0.528473667994484, -0.59899150069963, 0.995054818689091, 0.9206282462782108, 2.647853011512709, 0.7079290981368048, 1.6940236374027404, -0.35537375065385485, -0.5059226323010558, -3.9026108912795077, -3.112571908187999, -2.2313915092077177, -1.3331408492486998, 0.10058336091244058, -1.9181943789750227, -0.819763977406986, -2.6528271916705912, -3.680709344155983, -2.5507294724288414, -1.0636189084068428, -1.974660255627462, -0.5567361897245441, -0.8843375146902366, 0.605845852570406, 1.4905199868283003, 0.5018618463080047, -0.7981139777226172, 0.5816892176061222, 0.5618463540383668, -0.057157010088819744, -0.30185300402254817, -2.126693718744332, 0.8046715896675838, -1.556385100302565, 1.0761928529235978, -2.2846553047644664, 1.5021778687133904, -1.4832789378660767, -0.4412696367763449, -0.17288930997665605, 0.0013480851930978788, -1.5651068285209564, 0.11759229934838329, -0.5541072501849318, 0.6795647133332712, 0.7292593078901206, -2.285928189975218, -1.0215989975719035, -0.05003048927307048, -0.9427874455202484, 1.0598121187402723, 0.6615375101974476, -0.8124685659297782, -1.535867316253316, 0.3213317402070545, 0.5831742362718585], [-0.26883446537352457, 0.8314493172015812, 0.27983954120244536, 0.19692905879023298, -1.1416825094732275, -0.26526957559408554, 1.7966324050892208, -1.1799762839201409, 0.3320781388824324, 0.31664545794691074, -0.0509937171741497, -0.30503959534030417, 0.9375037100040781, 0.1805997244916339, 0.7748248525785829, -0.42617300016602255, 1.469167372285492, -1.2721224685875867, -0.45474191637693634, -1.5490617670041145, 0.4461351469359912, -0.7189412975680366, -0.02694913515826398, 0.5754649775669554, -0.43175194603001027, 1.3387687061911249, 0.007303895217380945, -0.3449628420461828, -0.20272785987468445, 0.4169253991863761, -0.09535112498150444, 1.1660741005633857, -1.2772271488083378, 1.368090360364848, -0.17953911717403345, 0.3995814730794243, -0.7184394641438018, 1.0111552755755746, 0.9970031730130211, -0.5498541247711553, -0.6606589334818156, -0.7577078352213389, -1.9337051185763696, 1.6453881664865866, 1.0390382457106262, -1.5159455072077057, 1.1948755155983555, -0.678586261440474, 0.9988266957690148, -0.5486655640174664, 0.6942737770354338, 1.4362636067307823, 2.0856865993436204, -0.1077053032571491, -0.26368244132064406, 1.0251346660728404, -2.7853738655444022, 1.4405738920479898, -1.1789720803931005, 0.39761229727477054, -0.8537240167048208, -1.491230627802391, 1.6773347950505264, 0.2390134719724836, 0.6953769169899868, -0.5293330042836798, -0.8306529796169111, 1.1031647625837835, 0.6233732756922283, 0.8307875554683971, -0.7162531428755465, 1.3108494041694168, 0.8540736913088175, -0.07804877245978775, 0.8298203407806959, 0.47877787279875333, 0.10821601547332887, -0.6416663897924657, 0.6118391057479728, 2.1186022591044584, 1.2520047826697966, 1.6936206263133011, 0.17045577019760996, -0.45494062603187907, 0.48369335166862487, 2.864104710090114, 1.374961711862022, -1.5609046458280798, -0.9420233300759357, 0.0457072365044499, -1.079423632294104, 1.164380949019134, 0.6807980272409626, 1.6753343729292485, 0.5149608081036628, 1.0022356738166058, -0.1450615789688564, -1.3093076253277232, -0.26455464990158184, -0.3318510913027606, -0.844954813313685, 2.206012647224928, 0.4999621104738684, 0.06549471841285785, 0.2718654797826713, -0.3811222585836221, -1.5354577809624679, -0.5587983734134645, 1.7541595964625367, -1.114913063330746, -1.3318604940217713, 0.7500686559095396, -0.06881134028102005, 0.9983819379160561, 1.328999651947739, -0.11078516175992167, -0.9896741863498622, -1.182864772334458, -0.22557001098396554, 0.28901450026593933, -0.2354503448212676, 0.18384133686193296, -1.8101622909756074, 0.6613083893986518, -0.8402099293814204, -0.21369446806598558, -0.13599070641652572, 0.4588251607804724, 0.31214590911793827, -0.6290701270318398, 0.7766484989824881, -1.0930522417210695, -0.8375754288382646, -0.2705884058557901, 0.6991207625129676, 0.5085291189374276, -0.4034394094408072, 0.5838028405843682, 1.6396358385327623, 0.6885404043423314, -0.7503013846894797, -0.20853109837312503, -0.14481478738445175, -0.3106167144792758, -0.8520010275097539, -0.2764538187236447, -0.2796388111629238, 1.0452769581271277, -0.2683214616592392, -0.21414868831594572, 0.44202587079094463, -1.0600451014451397, 0.527894538654815, -1.7055361670515887, -1.7119390815025595, -0.8181273439332071, -2.8514960217745644, 1.6773534793076081, -1.4862081269371452, 1.2000002435504915, -0.5033833148992582, -0.266384064530905, 0.8421670692581384, -0.8821710309725789, -0.7061058188201578, 0.5562419918272482, 0.20457367905216062, 1.2158978416919086, 0.11021735403790595, 0.5865498540451688, -0.08177051867140213, 0.08197280400591019, 1.8230878071546661, -0.8788743323181587, 1.1281191442067569, 0.5379490138652336, 0.8067423000999653, 1.1327007554973068, 1.410046301510252, -1.641679176169858, 0.8235765066974424, 0.002570350059448192, 0.14842626274094786, 0.5189604680038538, 0.6875038404390129, 2.0273930401020865, -2.673863176832804, 1.0666432210939882, -2.3449433037451914, 0.26235416597049005, -0.47033643052549023, 0.775576056668573, -1.311437591116828, -0.4140086502214498, -0.6207001584572625, 1.7630204525585949, 1.0986776792887103, 0.06026286922728708, -1.15305492436596, -1.038203729055582, 1.5438220334384394, 1.077359111467785, 1.8773590602720092, 1.8935557362367577, 0.8799434078953732, 1.5988832144319094, -1.7428143562075746, 0.593131112610139, 0.8805543861609573, -3.4517583192296475, 2.3442976335357066, 0.21226388730664808, -0.5038387808251638, -1.1040918281657328, 0.047910409593290515, 0.7142416830421251, -0.8585098095454331, 0.20194670279956686, -1.040084368806094, -0.24150409863795846, 0.5774055374021996, -0.09961799258311176, 1.0639316581471365, -0.9830005363818843, -1.207409245778674, 0.337255192744849, -1.8907587943861108, 1.8657609967137918, 1.0532615045365188, 0.42438375449522564, 0.7677846765932946, 0.8777842530378944, -1.2963601247313166, -0.933501412884664, -0.11746714436173492, -0.7299741275333321, 0.6344034284147665, -0.11206496719695375, -2.154143974174534, -0.47867684828813395, -1.447919661492587, 0.48335161125252085, -0.7690818546683234, 1.5613203770183093, 0.7771524015718524, 0.005920187016917817, 0.5567178475431488, 0.58072002943325, -0.2915533397697573, 0.38298147030036295, 0.2749711922823948, -1.3946301185497572, 0.0467021435391102, 0.508546518411706, 0.5647094954025121, -1.350094333495552, -1.1328939768745845, -1.4852275405696753, 0.19369960934446667, -0.374361381753944, -1.4941518109104417, 1.2745961682700968, 0.15356525720036066, -2.374217275881676, -2.1195382017194797, -0.7482945549099915, -1.335966593313969, 0.1698888619741571, -1.0633602328163607, -2.153321781528391, -0.26990684640930207, -0.42358102999144714, 1.8696448622816821, 0.639835466852539, 0.48256466841521756, -1.7917259278456945, 1.3215311753389076, 1.270202552901938, 0.08826414119924576, 0.47762321391067375, -0.5000996067993524, -0.259613164343381, -1.7985696800699897, -0.14346058098090103, -0.8756364604086985, -0.3755184415585287, -0.12450335882124483, 0.6704629016693682, 0.31671012005037597, -1.4686615670579446, -1.0481115506858416, 0.07497504255746318, 0.04072237526226726, 1.3074108713468988, -0.6068288349747692, -0.7955044358826694, 1.1826370681506846, -0.3317989552462406, 0.37909285425627764, 1.819225279936733, -1.0223497408365796, 1.1859171612134325, -0.9350905384725609, -0.3495828501571606, -0.5375673701944389, 0.2994758703862572, 0.017538126128178313, 0.5568439001531266, 0.532484179593206, 0.46607898345859855, -2.547342626522396, -0.20525238904026108, -0.3620844143144925, -0.5451901710446005, 0.9855391363752375, -1.9856210961471494, -1.550368300544543, -0.9107100849137016, -0.4780351507894865, 0.4696545568041196, 0.21251569963401887, 0.2834960621114089, 1.3335934935347173, -1.3992996255128314, -0.6270386107134014, -0.6627563941877351, -0.48479077267673965, -0.5329040144473313, 0.9241399839845554, 1.0981083815296653, -1.1863379838438433, -1.9641238919515123, -1.1733147941023108, 1.2722875779003595, -0.05518882838611278, -0.41986031519848127, -0.27472497606146945, -0.892254280189288, 0.2238126984071121, 1.2246721417589292, 0.004141483745092845, 0.4098807554134758, 1.1466309429763668, 0.6376499131217694, -0.40132745990403695, 0.5091474835631007, 0.017969814840478188, -1.0959621701046247, 0.4842449867139549, -1.067561274849583, -0.024335961963243856, -2.512905648965262, -1.026939583295266, -0.6308724405256525, -1.1758307754992232, -1.004606236835402, -0.5535086102430109, -0.2670117415414712, 1.3640647275633373, 0.9604726680010691, -0.9589992857471166, 0.20004401740727837, -0.12750000240642248, -1.5268895558912956, 0.41059123101206413, -0.6299633935663946, 0.053984217402303386, -1.1988101167446077, 0.9211673484271184, -0.1758379649684478, -1.5346419241834899, 2.691099773227649, 0.8283765630988117, -0.5557031838613364, 1.2380795680051253, -1.2263807377923952, -2.1546917773914376, 0.3277997721739366, 0.863895208565869, -1.003758365643922, -1.8039627626509547, -1.342221353696861, -0.7176471272086964, -0.6912483818863159, 0.5948880486492859, 1.6467503441213158, -0.4527445809233879, 0.14659251426667871, 0.732001277882884, -0.7636794904572081, -1.426003672327267, -1.5691725074779508, -0.02253636974540287, 0.22324046736086348, 0.02299892099348896, -0.7344814053033926, 0.6661167909269144, -0.672007299368323, -0.05861495607472662, -0.4917878715537956, 2.07675471892626, -0.3306538221984375, 0.6161027492311412, 1.0350800509304208, -0.6166929694660808, -0.12651231428765128, -1.5702041157566013, -0.2975702020866263, -1.5139071962446737, 1.7379065766394697, -1.2747939983985173, -0.035281443137379485, 0.26535111905291203, -1.2321767867115048, 1.9631927936677585, -0.26558538123345815, 1.5073366532811843, -0.6406304344785272, 0.2938661335748832, -2.307226479402558, 0.7085760412336375, 1.1300440772945475, 0.8602868632955774, -1.6545613598735671, 0.6802756319581575, 0.4022157295364881, -1.2513312800258127, -1.423014427886718, 0.8092167515504517, -0.9215090103374699, -1.5351692344712407, 0.9183616543119, -0.5487120320487615, 1.3107741354876177, -0.9074081144945692, -1.462111114193605, -0.21981303932742488, -2.7605750695492146, -0.023111914115341067, -2.5650024793825628, 2.193699507047792, 1.1663367929216293, 1.1393993349404956, 0.07282547141802855, -0.8569536066525265, 1.7961476659877655, -0.13326091959377326, -0.36291352112329434, -1.337472092158931, 2.0410178089429922, -0.2757904497845513, -0.4505352451378355, -0.7595570415599912, -3.439741632170218, 0.5639321019221464, -0.513406077577891, -0.1395257479038961, 0.5124566892198347, 0.35070012395747024, 0.7564259427012687, -1.9507688056675014, 1.2192632683603544, -1.191419741168569, -1.6121846502933475, -1.787157819977707, 0.3113138540174715, 0.00519340550481926, -0.8126393369044956, -1.1559154770682696, 1.3979967820708123, 1.2469219078955962, -0.5565032189499473, 0.0796741283929455, 0.8621135745467337, -0.002901257583603135, -0.09472868414731306, -0.3322006773083734, 1.1706357605454665, 2.2366111047796733, 0.8421945166833976, 0.6028498374089104, 0.33217623148796876, -0.8069368586501465, -0.8094442004461031, -0.22161876052931986, 0.0904404697239406, 0.277929770278404, 0.3772674614798286, -1.0662661195628815, -1.3363474330813614, 0.0636299643119624, -1.5827507966083014, -0.6157496361307423, -0.12014226697794081, 0.324070946204374, -1.6082584252460568, -0.7672893933664054, 0.899421762236185, -0.4820107153727299, -1.4227722042877178, 1.0869934403651613, 0.3270897877417602, -0.878948304150194, 1.7997663191199709, 1.3517012602940432, 1.2348624909571715, 0.3733759812335204, 1.4461498979062906, -0.6541353931184926, -0.6627654346911198, -0.11799423683369714, -0.44531587952106577, -0.9704776869234685, -1.2841105208482058, -2.408703452513933, -1.7763819818006565, -1.1409496764440152, -0.45862580126180247, 0.31538717981381714, 0.7053449690108277, 0.04446449315279699, -1.7328837118021914, -0.7778570592641108, 0.4526285985169151, -0.32062882708602203, 1.5120354977939285, 1.1877687587547114, -1.3093142440003764, -1.0280805605233716, -1.3382266070153745, -0.18878786542832393, 0.2854397950474258, 1.125506881648049, -0.940964376054879, -0.6628677802536108, 1.4322708885923072, 0.9117614437346423, 0.4927845353069706, -1.54736866523577, 0.24301061782903607, -0.9011649956539373, -0.1892678804208266, 0.596412065411557, 0.643978120064762, -1.209143065836985, -0.5209735984332213, -1.089078535404378, -0.4572675396028942, -1.1162215507470568, 0.05787264976848509, -1.280659600721079, -0.6172573931663097, 0.20378343304371782, -1.5376511356033757, 1.1440627170972277, 1.192862755050877, 0.6756367867102487, 1.4806839538655086, -1.1594678963616967, -1.061638110063392, -0.6655962438756612, -0.332280055560038, -0.9486920831886156, 1.0657680395121811, 1.422118058375965, 0.3505505925991181, 0.5329869139796919, -0.13024713567030866, -1.6972719573790658, -1.5718782186998939, 0.9369193932957934, -0.62550358899515, -0.11566235389576063, 0.13543393996136913, -0.03844605636754151, 0.6649528062384481, 0.21555853596563185, -0.6547740669664465, 0.1313927200983474, -0.933184194796977, -1.004802109423815, -1.093164804841232, 1.9651859895247048, 0.25915572107799395, 1.1106873203066387, 1.2518266514791443, -0.031196098388496046, 1.1539302658555528, 1.0284136040655192, -0.7145047821650901, -0.4688635264622877, 0.3679080310219886, -1.0663329461110969, -0.009874287770478237, 0.21237193586178768, 0.5318098930655549, 0.05663718796836542, -0.251628246610675, 0.5416296546807916, -0.29914723373742713, -1.0512666140248832, -0.7441215163893238, 0.6979375891916854, 0.5470045319949433, 1.361750470840268, 1.5052191158646036, -0.8504297299046684, -0.8594556781453738, 0.588882235934384, -1.0051491764654101, 0.012095251868339856, -0.9155256195154088, 0.6679877046501486, 0.6453529462574784, -0.2755325524309133, -0.7581206338859342, -0.10796214283820971, -0.37093047350432573, -1.4780064849051053, -1.3398091865053061, -1.1614890176265475, 0.6238734309016768, 0.35721879652731003, -2.6256484921943133, -0.2801915229050057, -0.7185111974414587, -2.2139387105042534, 0.13048105791433903, 0.5448894122879214, -0.03436746251184762, -0.3944164331106101, -1.3356406929394096, -0.6710864769694966, -1.2327099827098462, -0.9891628563488047, -1.1716965960492323, -0.17197629435381243, -1.862634895394668, 0.3876910120226916, -0.465576467853303, -1.5838710041999526, -0.7162855420733557, 0.0037067476045992975, 0.4498681409196512, 0.4041135313657356, -0.7831370084071924, -1.07908873561797, 2.0433048151146602, 0.17797735143481225, 0.964699733809954, 0.17440593009784447, -1.6991168844811466, 0.5334006267485278, -2.6737155832890425, 0.6600893590207376, -1.7047967222557352, -0.8551695484470541, 0.6101424492506761, 0.4599388954521634, 0.5783846821203683, -0.7991372352816457, -0.9518483976920302, 0.721900637971773, -0.8154345004119223, -0.41421529601143847, 2.5749225161027036, 0.6775012792658287, -1.7446146168879721, 1.8161206080654997, 0.2530556068136918, -0.5225681597612468, -0.08167821564395658, -0.5967681164781781, 1.8410588181732872, -0.40108542372558653, -0.043855700237278986, -1.0036184690010113, 0.1272797890247499, 2.628349212758587, 1.1819522246365401, -0.09387900757931225, 1.4180643146484273, -1.3509218810188945, 0.5776457315798934, -0.9589936991936653, -0.009407105975008536, -1.0892923583950949, 0.0769075745896414, -1.453080331221595, 0.33180261824611246, 0.13447424491495585, 0.9539568382019004, 0.08162150930316749, -0.9107387355017358, 0.5442717668035242, 0.7532478587372252, -0.5595254641815196, 0.919417077358382, -0.3113914167897987, -0.9609300157169027, 0.001441473045198863, 0.8234512183410635, -0.4710563400788547, -0.4975419731280903, 0.8378781483972346, 0.3581767442018966, 1.1505463676319807, -1.2246093896122336, -1.1072150038160253, -1.618652636413348, 1.2663853295262384, -0.3945578847132531, -0.5159435888282037, 0.712834969281342, 0.07255281452623495, -0.40763620535049017, -0.27420656326164283, 1.3322617913937809, 1.1800876780776433, 0.7020033316246458, -1.3177269041192747, 0.10504365903073055, -1.0300538980393839, 0.690875121015503, 1.0267262754834652, 1.2314996856144906, 0.02722714636884508, 1.0383401420627743, 1.0431086867600399, -2.1087408817206286, 0.9157370428218781, 0.7705727878817252, -0.17291376693062274, -1.414592593573336, -0.6874633120908551, -0.7795260709413357, -1.432362882770488, -0.7748406315630882, -0.41066122937536326, 0.25820700190010115, -0.4197766347662224, -0.9186063747119452, 0.5089754008698935, 1.7997420089916314, -0.4116537892788612, 0.5363052647436989, 0.4449186189716144, 1.4686969685183575, -0.4546025144156678, 0.9722592394318009, 1.0702278458648724, 1.1242493417946648, 1.5330457472430428, 0.05270787524746668, -0.3582093542870728, 0.011129389049033508, -0.4650927250135317, -0.6845724820136745, -1.2192719562544132, -0.24934208472736305, -1.732080218553711, 0.5153802958297509, -1.5331140762648792, 0.6934985863387023, -1.3954918306873656, 0.1773091052298692, 0.21170575324087793, -0.7096966921432842, -0.34840008368041364, -0.4357127165051, -0.8214155104282999, -1.4058906211366726, -0.1065011853949225, -0.24123023186624357, 0.9441758231329245, 0.9936729673819749, -0.8513873765953296, 0.037558073729916486, 1.3479977349104666, 0.8466027156349307, 0.8907247286433623, -0.014327927645906955, 0.6012387916554517, -1.6606107120015907], [-1.2197589770142145, 0.30936557025883615, 0.5872612997674121, 1.0845339966221808, -0.6044138165339838, -1.4370395908087747, 0.08947769005912963, 0.008706204730486156, 1.1329597308920962, -0.42691786955898275, 0.2127368511738197, 1.0845994756955017, -2.3346865679193196, -0.9674136318308476, 0.3411139986302931, 1.3846286218715471, -0.62536012123471, -1.430145272311555, -1.0952577635109428, 1.7196798953284582, 0.17586709344629892, 0.3475731303601944, 1.1401132106457594, 1.6850639631558513, 0.35380823304160275, -1.7741704917357881, 0.0039295366823113055, -0.12883423810169486, 0.6241066817938308, 1.3693373186180222, 0.7586280176082683, 1.1201671282180932, 0.1004398274354995, -0.37452144509861657, 1.6351237595138994, -1.9029065551853441, 0.30977637542502034, 0.726752791593082, -2.389245102070609, 0.06716873733344793, 0.5804828159914395, 0.16116639008121816, 1.4123084192521003, -0.013122152310216009, -1.2719364576487133, 0.6867035027132622, 0.3727991370976685, 0.05688785360488307, -0.5717917563375785, -1.143813885376521, 0.032667861619456735, 1.7602512242831294, 0.41380815027188916, 1.0307923731298476, 0.12681338017253754, 0.5511922206597263, 0.9682654129772265, 1.8313746335694743, -0.8786513874145456, -0.7236855332010187, 0.8392003144591268, -1.9474691603973644, 0.12191055473330908, -0.8095449780710632, 0.28433295781518364, -0.028191128837441164, -0.6451917170315093, 0.648934616879489, -1.2564430748810587, 0.021007770918023947, -0.3483748066026505, -0.3424808951492881, 1.5582853997299968, 1.237357720168638, -0.8510360150992776, 0.8564472340895761, -1.5432890418764533, 0.05523181194764892, -0.3693397921239562, 0.833264157293848, 0.13954574865633138, 0.654986715341247, 0.22053373640269372, -1.3805035034024284, 0.6193604790829106, 1.7733051013239296, 0.12655700015475174, 0.5041060791083684, -1.5387766563565726, -2.052184428333475, 2.260788407747653, 1.423447847285294, 1.5281301535312435, -1.5746012818364756, -2.1347648664462433, -2.7629829600484723, -1.045934495322333, -3.553479396457626, -1.221133127214667, -1.8144042785135353, -1.3523232949029316, 0.23868189160445383, 0.7854530616754357, 2.079454668567726, 1.3252589876384386, 0.2787738210177083, 2.018190443039825, 0.3472946183107445, 0.10111956769374596, 0.3510636816991413, 0.9573638536366764, -0.6601496451924552, -1.2366573204747298, 1.0031225831592747, 1.5039597111222456, -0.4552170514243051, -0.12231756342725848, -0.6991818107748303, -0.9350923171569958, -0.4815273912376061, -1.6127169121840452, -2.5041548273092133, -2.026745681160288, -1.8627556517825892, -3.4621389958020985, -4.737861289647793, -3.3117335307694318, -2.5282063677445237, 0.2879991615196983, -0.8560630111003095, 1.5232218846350671, -0.5299193688806813, -1.127421873303422, -0.46234695809360987, 0.39286258833111365, 0.2553924935809849, 1.109977972820792, -1.7470413659905013, -0.3167555781076773, 0.7652463625936836, 2.245158773119871, -0.21951717695659356, 0.039337415216426704, 1.6929945365937744, 0.6904839151926786, -0.565936672847638, -0.8962587955131021, 0.22715954154688914, -1.3492404674649952, 0.555871230193417, 3.137733867114679, 2.259508565764651, -0.3581454700572396, -2.4128264962188135, -2.2360666259675197, -2.043596616516452, -1.653019787154595, -0.08973922702493882, -3.531189841709777, -3.6651448880332405, -3.0530013184045743, 0.7015495125565684, 1.9617258181394124, 2.308744637486774, 1.268668957701085, -0.0027387576972021104, 1.7146829149764395, -1.3254643011686407, -0.5170574940779847, 0.06251574586906201, -0.0033954826194676374, 1.0916710500661757, -0.6729509276546385, 0.34874425086557076, 0.5161400217762173, 2.9978121400599123, 1.2251075585301316, 2.3508515672470014, 2.454553839431508, 3.618949887699509, 0.693779670301538, 0.6406340701167055, 1.1743315257266846, 1.4309716049517616, 1.8673166942497432, -0.04086015741476928, -2.038038233394213, -4.129855227011628, -1.7079595115121755, 2.7948535428521795, 1.0662539478420219, 4.767679914402485, 4.025055138885138, 1.6905913086562292, -0.737794990691916, -1.6515695327399362, 1.322434990528305, 0.2981014757567642, -0.2508750381827016, -0.398286960612957, 1.2641451966952288, 1.48989323215796, 2.0706921568546313, 1.1438697607242585, 2.7855991543188185, 2.100623612950735, 2.3168632833149063, 0.08248474003360158, -2.458017337044497, -1.612248719630682, 2.1891386738978547, -0.009743944273591687, -0.2351751432686069, -1.8487139910477997, -0.3664572406834706, 1.0048392752373017, 1.5892648485424103, 0.39957983988765877, 3.6134923357175714, 3.702189212671629, 4.4710800621596425, 2.2882880081128882, 0.9072230013726449, 0.7005281625475449, 1.240464569191347, 0.41168896630512214, 0.6367943771098172, 0.340196388245526, 0.18442664530569536, 0.6875556260084819, 2.3627112689046523, 1.4281011077573116, 3.8122521801891467, 1.4586279543330234, -0.8325285628826983, 1.6030688180426593, 1.9656091149944133, 2.261462332861261, 1.0779378173537337, 0.697924861024856, -2.56432987364984, -2.661450381820709, -0.4444655447815331, -0.7933204904563809, -0.15286958620313434, -0.36047767601819797, -2.611689351886254, 1.1936064520018974, 1.2005240603788827, -0.08944996952595034, 0.13142074686155497, 0.9322613268989415, 3.245209973775277, -0.5742875472076365, -0.12058997349506673, 2.3164969986635855, 1.6590859440047168, 3.237078587741281, 1.203824980234015, 4.114074949024817, 3.6891165420735024, 5.371315201583729, 1.2804070716552263, 1.4479030944674058, -2.6991119341566554, -2.148674582592321, -2.7853863538337236, -6.837991879458765, -4.376297881851024, -6.988298225061068, -6.973655962496347, -4.2765167099684325, 0.5293544965160148, -4.409388096225891, -3.0796257417956556, -3.2390096388929797, -0.8077304657901692, 0.31641036084298346, -1.1706736876277168, -0.2621336698306678, -0.740843943492751, -1.231963622873595, -0.9030416013974727, 1.763778642372383, 3.7081502321150364, 3.2662771481831023, 3.8567790064981784, 1.208091844209597, 1.5922814787796928, 1.0447442424607407, 1.8872178450564476, 2.7678339314985654, 3.787363229182604, 1.3555995543513273, -1.8194768245539525, -2.0842848926773274, -0.2120426204167375, -5.885965307382542, -6.449603927496368, -3.821690036318093, -5.0051505603788415, -4.885212286225414, -5.045423384860749, -4.054122448788931, -2.117159680827222, 0.7124453620752963, -0.5899103018401396, -0.9946480231557323, -1.4964206713517159, -0.5399540371490482, -0.008494929403471935, 1.122760322792079, 2.3564980231651487, -0.7703391436835321, -0.9999700963581004, 1.0585562722124708, 1.016731757034974, 3.4696835683721976, 3.36168652841904, 7.483780841925449, 8.007930831480653, 7.759652189094598, 6.486757141520841, 3.646404435578927, 4.527807801161832, 1.2629263521975398, -0.11721645803225292, -1.9242428091142163, -2.211150531983535, -6.481507122899545, -6.474287260414462, -5.895377243511077, -1.6662442313264798, 0.5080390428741397, -0.07764179903468044, -0.4413521981089558, -1.7637187334881668, -0.25446836201489664, 0.9710076585751922, -0.5499657037908257, 0.497530509900087, -1.11889355595367, -1.4574222078051144, 0.8252180404895986, -0.9603229205330674, 3.9625549916497493, 2.5541564422600906, 5.248012191377588, 8.37156778364337, 8.233053202694625, 9.859180538947044, 9.96416898495496, 8.731983720944035, 9.052302097341942, 6.635826295023747, 3.0268203848476127, 0.5499162224753698, -3.883355427671183, -6.77224534269113, -5.491263609053779, -1.7585536088372953, 1.1527693993366495, 0.34641981097843394, 0.30569125095696953, -0.48142921740991873, 1.7496681623839767, -0.9932107966136414, 0.32309266459738517, -0.11939474707282172, -1.0180958951393857, -4.898598020947949, -4.183617453776318, 0.24470652312346425, 2.237078772785064, 1.6260385567171998, 4.664132574159761, 4.09624568841741, 4.970846634848357, 5.686253165608922, 7.734563895727637, 10.992085220251953, 8.96364107463505, 6.088363832339495, -0.8255725467858428, -0.9862532866452702, -3.300165875943985, -5.24971191250275, -5.29961531958795, 0.09421600263864462, 0.018316094062588776, -0.4934412244344868, -0.46954517814303914, 0.036273283694316184, -0.03111975169448788, 1.8261407538257177, 0.8342086027557465, -1.0204234461166257, -4.29671224906808, -5.573990602884515, -4.870654508744204, -2.2904070005641683, -2.238586449702851, -1.8352684765551162, -1.598493226535158, 0.07280007382757889, -0.8567407258700337, 1.627084794726363, 3.9207038425654237, 9.855908082426428, 2.922540379359035, 0.751219592763684, 1.726179156708141, -0.6155212581357271, -3.991615987608293, -2.627512188388517, -3.169906996196319, 1.214671594630346, 1.033972260933449, 1.2515681137808454, 0.31460325192758287, 0.5816222046336168, 1.0262723211080171, 0.5209893830752398, -0.8400699058167423, -0.21653227991462592, -5.097883743297059, -6.151271179338219, -4.753405105759314, -6.054535843719193, -5.661550571431296, -3.5427569653113578, -5.465753103625711, -3.6166831195320284, -1.8469171869933136, 3.07983228919186, 7.200695456313596, 7.434908799010855, 5.443529045236688, 3.374104830547898, 1.867243495584319, -2.316119253139964, -3.8784310911748094, -0.6256946487760808, -1.1840921105667415, -0.8323169711587168, -0.3888171208793518, -0.41400048579667365, -0.4524992513709108, 0.5892495602434182, -0.9375649387512036, -1.060555368351832, -0.3666188173102331, -1.2192049204125324, -6.159473424595146, -7.772311418256702, -6.061384320547321, -6.252606223477619, -6.882757331086573, -8.13552716500169, -7.627984548019513, -3.269261923640517, -1.8378660581825683, 3.826708217601651, 6.506306806440362, 6.427656763567451, 3.432683170284824, 6.525289016108413, -1.5065202416768009, -1.2703811589738323, -0.9997727538865662, 0.22695321652840578, -0.5680695548487374, -0.5179914311668721, -1.0220647072006388, 1.323755231443759, 0.36488217350510255, -0.7328603116474511, -0.4036451433737278, -0.8613738915397271, -0.09190457149219977, -1.4111635743120075, -5.561600789038124, -3.122747696340582, -3.2533888075373847, -8.580555777585895, -9.56272024993723, -10.270606335445821, -8.577789975714984, -4.961711110969215, -0.24216026277187358, 2.767326505769786, 3.3108441401124145, 2.6892070990089563, 0.4901858181633942, 4.894344489674747, 0.7040060911154015, -0.43959123002992095, -0.6333883178734554, -0.16742307367539824, 0.21629019989214593, -0.40676842916966727, -0.6276375890508232, -0.41944186524609645, -0.3279946282897738, 0.12299029784280276, 1.0284821736298149, -2.0104556770009507, -0.9765526701242845, -2.4266969935603773, -3.5491528644608157, -1.3595395925229479, -2.8169483530880974, -4.465196178245758, -6.97057172740943, -7.978598343441995, -8.270923323829392, -5.687203375823099, 1.7903503711547086, 2.540620134550948, 2.261599428583311, -0.5807317020489003, 1.2913907119476729, 2.634446960275142, -0.3685386765436517, -0.28884293720175147, -3.169372803236165, -0.4796838714972189, -0.7431196866786892, 0.41757673775494714, -2.13342452739274, -0.11206342765981325, 1.227889179953547, -0.8471904731523332, -1.3110970871496175, 0.42048068928586657, 0.7021931655888692, -2.252233566134942, -2.8849294658826694, -2.4190744051264867, -2.17597908638512, -4.980763603405223, -6.015376555313927, -9.085462666423966, -5.043595360285054, -2.144070160225228, 0.18994348008488285, 3.035372167862336, 0.4999000251176382, -1.4165415091741136, 4.371953438912088, 2.3188957157142482, -0.2805668113564602, -2.7451537782547457, -0.20944172900242738, -1.9095187130215565, 0.3351267006107434, 1.817117728084424, -0.7169629171653804, -2.3898197077055774, -0.5047568602233623, -0.5868075218653144, -0.8910594842338662, 0.9172750155311135, 0.37450794328211257, -2.7355510842493884, -0.8859771590056184, -3.552623378100161, -1.9936066846800684, -2.5733420212578504, -5.635161517647814, -5.976826247353659, -4.875758467535856, -2.0792220922183318, 2.185160126400921, 0.04414910872959378, -0.020790925806053667, 2.31532602660328, -0.1246900328011346, -2.014652805555061, -0.05816678635572369, -4.336985030690228, -2.21953170275291, -2.2867369172282883, -3.4088739070213694, -1.8530680578184677, -0.5902726020276773, 0.2651825113736747, 0.3180510641361189, 0.41031425942453514, 0.36939714615057406, 1.697927703545781, 0.16449817681339932, -0.7237098013807927, -2.449190605244416, -1.468674210595686, -1.42755339806048, -2.9784020516513463, -5.008004115344199, -3.2291732833157596, -5.404079461822951, -1.7954683651793197, -0.21115538765109457, -0.20636753373236094, 0.4840482426853841, -0.4896088759750861, -0.20195294303935404, -0.4268068476534525, -2.715402524451504, -5.1150673856303195, -1.7361098197411993, -1.6650667830499937, -2.633985251304374, -0.6305682855299005, -0.6461066560548979, -1.1660886830544883, 0.1757379546803395, -0.8378878097414296, -0.01999139669253356, 1.0629104968727616, 0.4775308897248528, 0.6368768867283517, -0.9143500278353663, -0.27244044490374875, 0.2622125554110501, -1.2266552440488903, -2.550073905229805, 0.02073779737810707, -2.010762025849494, -1.510618432484702, 1.1614406841360505, 1.8476354839143587, 2.9059479602369516, 1.386446935662329, 1.0155691921859535, -1.853300588578879, 0.7320174284575215, 0.11265751091483446, -1.179702225264314, -1.4321801904138518, -0.3000978088473778, 0.7611414485206066, -0.9725189794389977, 2.234123362085286, 0.32537756053200334, -0.37361274392750804, 0.8014867141638069, -0.6117856148331631, 0.021415571684616223, -0.6885093760240126, -0.1917328513727698, 0.22299023222913078, 0.6460250863159143, -1.558040564496047, 0.5603338087625958, 1.6698174669740176, 0.12469043005401995, 3.6272990088234924, 2.668785694245938, 3.2229855926101743, 4.548776863436526, 0.9431962561636106, 2.0408953173804227, 0.39198262273715107, -1.2658402687231602, -1.3720369895675353, -0.5680404935966508, 0.6374271129305505, -0.6462115120907278, -3.556606364657928, -0.6537284292610545, -1.0147142381601646, 1.5166884955647373, 0.8703047795063389, -0.15133991743018776, -0.7648083914116413, -0.677651444017219, -1.1055576100425915, 0.17475329990807603, 1.163312537336442, 1.6192243586877502, 2.332064728551972, 2.1606436878418056, 0.7378619226220281, 1.3403741530776787, 3.119305684953686, 2.44262575714444, 0.7353154222436169, 0.13426415538595732, -0.20425269486432138, -0.3395985167601982, 0.6747302445164893, 2.194153040907228, 0.04757400005334039, -0.49905569413706485, -2.039365225444028, 0.37386937068052695, -0.9169604715903481, 0.7292421318487237, -0.18866497004651211, 0.8421668335929626, -0.9530524771818407, 1.2637168974188884, -0.0060949093900882975, 0.1499195881457731, 0.6250464684343631, 0.1036011020275301, -0.9474391344025258, -1.9143865281239247, 1.6449748073329244, 2.812567257807699, 1.1715683087646616, 1.4431673098521105, 2.1385966245589425, 1.0957689745137342, 2.389749018887325, -0.11946001748971392, 3.2869529318133472, -0.06637674872956296, 1.780951919037186, 1.6046427105201528, -0.37122420360420355, 1.1212650318452262, -0.39077649234761314, 0.24568022313930282, 1.9469326982058994, 0.7019558192376446, 0.4782281691592021, -1.7963590162142467, -0.6887522194588579, 0.325771804239155, -0.5286907079368732, 0.9622574792945736, 2.4230490958236692, -1.446664384039721, -1.9073071551291767, -0.3653785013081798, 0.45172269987119146, 1.4586973546914286, 1.1087494542186334, 2.0702175864952213, -1.3091724314747555, 1.3161690945213238, -1.9719062117774533, 0.6141707133571465, 0.7844222894265553, -0.3267860445178921, 1.0794461088583038, -0.8964915840804943, -1.434705605711497, -1.9203864738041108, 0.3941837163352546, -0.007726407516388656, -0.39406669806484423, 0.16436547423812392, 0.8639964510834082, 0.737029341493828, 0.7961968821836073, -1.456284815104411, -0.3395896512744371, 0.7638209635574947, 0.5833538077130273, -0.9793931066250495, -1.6657921551751815, -0.733264981187745, 0.5955503693722699, -0.8054324475901106, 1.2028411785422717, -0.33671545249884066, 0.7561883665917875, -0.6705226659952888, 1.5023319888852973, 0.38691144739923694, -1.5453444592298524, 0.7810207934533567, 1.4287481585050121, -0.5321597437722193, -2.171594020059065, 0.5502509846095678, -1.2379438479317286, 1.0288036229789546, -0.8774068916107176, -1.4180214417485673, 0.4225100782700035, 0.5118354225100149], [-1.3599613709514595, 0.4979083169398087, -0.6374647407261168, -0.208723709073043, 1.058104244569525, -0.3396564672359907, 0.01365104009279927, 0.0815044246347968, 2.5559419914126034, -0.6491119718885606, 0.03810899644902699, -0.6526265573610156, -0.8818070502534252, -0.7723393517133361, -0.24923187677631706, 0.5611317134086728, -0.16098134235442657, 1.841930188820173, 1.1435774385276527, -0.3325359723251093, 1.199144946740341, 0.17581533983563935, 0.15690776395080352, -1.6810985219678558, 0.735176238915964, 1.9683612018184533, -0.5768078482689163, -1.0409369640552901, 0.5283788731628604, -1.1269446826486678, 1.0577561915546771, 0.5127370468714848, 0.3717841337591554, 0.08509338251239441, -1.3935881383441808, 0.8454042839335012, 1.350002593634801, -0.6913118233896006, -1.1041213834035648, 0.7145232510842411, -0.4643346677768624, -2.2802194410828673, 0.14950177035272874, 0.37242258094154695, 0.9572552309372365, -0.31503802153161314, 0.2380331380291341, 0.7182137383900234, -0.9226416706654847, -0.12563068426914425, -0.9529844267300022, 1.504679137547762, 0.07505596405169221, -0.15552049182056188, -0.08823440116470409, -0.05290097548164621, -0.2593577777701759, -0.335309476106993, 0.9286027482915566, -1.4236453236416482, 0.6137318553948959, 1.642317064741167, -0.4738133209992007, -0.6255451768065373, 0.1258988052947623, -1.9225494697172638, 0.19360529748505068, -0.8434270719116633, 0.027609095641819972, -0.3110867315202496, 0.9239021277513163, -2.3882932403650785, -0.9401627450495396, -1.882402400092113, -0.5080933397981526, 0.1579703820110674, 0.7728162427955418, -1.4866639991639807, -1.2169207694407125, 0.8342022390264261, 0.839833479418273, 1.4849371887128928, -1.8743806976726163, -0.577113507202416, 0.07551853920952498, 0.6219115047693567, -0.8455678559886296, 0.6279214527709411, 1.1712618736294769, -1.4054376676418299, 0.7299995610307791, 1.158958390266981, -1.6655984880334564, 0.20729184777994897, -2.3435624233902375, -0.8741502216298501, -1.0990424001432613, -0.6627507125446568, 0.10972286672353049, -1.2122629896660941, 1.83195994103227, -1.0735662644957387, 0.1160386476854615, -3.029958555708041, -1.6843052854366065, -0.6410298700080226, -0.8464535021961977, -1.724186153300877, 1.990172161534203, -0.7439298571379456, -0.1484525062626409, 0.5689853011834963, 0.9393264577794437, 0.30387043127025276, 0.7871948273170476, 0.33354090807449505, 1.6831528924888457, -0.012384250647695914, -0.9809571074818344, -0.020488320968881212, 0.3571903439161699, -1.8894519216232042, -0.9632849785487964, -1.7753030441275504, 0.269179300735351, -0.8734305836236775, -0.08602399146394821, -0.07497937721810759, 0.7007488686279179, -2.122660930154063, -3.460729753539411, -1.9777802926615726, 0.7903486205333616, 1.0235529855825245, 1.345018639051807, -0.39472445602623424, 1.3663887612602925, 1.7183443183777996, -0.46242292518624034, -0.22876888995034492, 0.35515477362652575, 0.8355873007649229, 1.522932168042771, 0.48993667255717654, 0.2960676025397927, 1.4669487684120328, -0.8287633892399495, -1.3085135580292468, 0.3388080133107582, -0.03164334216738309, -0.10999207996142908, 3.550269919794797, 1.0511139004270809, -1.221439327956741, -2.7258206790020014, -0.7925859387439326, -0.30865327668666664, 3.090952151843554, 4.268395332259355, 2.6525515433250813, 3.2639654489425176, 5.10991752373001, 1.669336188270699, 0.47784711774547506, -0.10750994446679173, 2.0088710730585344, -1.6120559379840738, -0.706104592190917, 0.9480425522999562, -1.7013987989793622, 0.0259653401873738, 0.5852418630248826, 0.1357209959768431, 1.2105040703562384, -0.7451914127101524, -3.153948316273928, -0.28135032588535897, 0.43100996820662424, -0.4316145149682282, 0.7526758176766573, -1.09274368758233, -2.005946228976156, -0.5079354255220707, 0.5432840750857771, -0.40113404830331945, 5.933539241905981, 6.7526779073437355, 4.828175946660391, 3.0189135730634953, 6.485047340127098, 4.241230726471809, -1.0078908215442022, -0.026520358103819926, -1.9551684018971094, -1.4157604325934436, 0.9736445739897122, -0.13357610374715864, -0.5495805867962955, -0.46550381069803287, -1.1239582353242479, 0.2821443868514, 0.5940933384948447, 0.013400088602998074, 0.2529510630482283, -0.5580964206181354, -0.9676090560189484, -1.2237255157904865, -0.4917059745711743, 2.4879191327307804, 1.0776071735137747, -0.6422170734443359, -2.8573865555264923, 0.6525688673271877, 1.544578551719207, 3.6192795506147744, 4.920669996367809, 2.264975602985729, 3.2810067408497066, 1.8996296516189433, 0.13634691111754307, -2.4417882050263615, 0.6242127282255076, -0.8446329279982482, -0.7575387508528681, 0.07275342293686068, 0.4824210443214998, -1.6319022875974225, -2.2543229333208976, -2.214456604298767, -0.5607303798064571, 1.025279703454009, 2.794552041071834, 1.795359875334514, 3.5593256803555486, 3.080928900803587, 6.156298321340143, 4.513519129499276, 0.08412829160991771, -6.241954158067077, -4.608189718151779, -1.2850060033748987, -2.1392339879858717, -0.7850685191342054, 1.5983857862688555, 0.3107566385843513, -1.6925585198423694, -0.6187810736640967, 0.7135972904919146, -0.68094480500936, -0.7352049336390526, -3.0355914180813905, -2.005959576055565, 0.4744849145409485, 0.849597011980366, -1.3451805424749819, -1.0668344737456972, -1.6933740777163002, 1.3509670458920262, 0.6737121770885558, 1.9583555448005745, 2.876099175340228, 5.522902739211207, 7.604255557174198, 8.523086630805485, 5.3641607589627585, -3.524008648652921, -9.173397969081833, -8.281071956374548, -5.741316189031891, -3.0551821211392802, 1.175801530488051, -0.9227600393515061, 0.04555740104653275, -2.3945542998330955, -1.4439259508374809, -0.5148965340746534, -3.0385236216516898, 0.15574450558312422, -0.9533060068237053, -0.9269599335589601, -1.200774734833414, -0.878923391757058, 0.9802638039201657, 2.143717685285008, 0.9864238433647112, 1.9726228739099678, 4.306648968100488, 5.644616138533341, 2.676439515245526, 5.726525855331165, 6.34230418379971, 6.931333421937211, 2.488635617583522, -7.854649684364721, -11.070099797560411, -9.330342629039437, -3.563169273521314, -0.04532362291292766, -0.5356427092522064, 0.7789473034399743, 1.3071300066241267, 0.64915227505429, 0.5260388529776728, 1.9403013735750558, -0.7699598281884862, -1.4829884482963667, 0.2855122143837321, 1.0355522163397994, -1.395076734188248, -0.27512501079999335, 1.1645042431443389, 0.42935261945759146, 2.3604821030139047, 3.9923233443451256, 6.32015745143741, 4.210189282333793, 1.4670759692280642, 5.475585923867708, 4.66496462364475, 4.088472204995957, -0.3816930707555077, -5.824267370065875, -9.59035086537851, -3.3202200633170826, -1.884320720907055, 2.1226469929100467, 1.541459839425173, -2.207572377833928, 0.5768540966248653, 0.22145648669713158, 2.3139329913147404, 1.634745555926553, -0.7863847004310655, 1.2955444418058306, -0.7087651037994401, -0.15368799049726722, 0.10086867865183854, -0.05571249682320069, 0.4619983266177618, 0.09129974941956027, 1.150486082399197, 4.73980049288554, 5.627335565929034, 4.076546842592709, 4.45478719841619, 4.649818165057125, 4.6375856834643985, 3.3429795717107855, 0.11304533326484928, -5.821953667098645, -10.179735427885763, -4.809749665462063, 0.3122063395917415, 0.8492846614649636, -0.034674973826076476, -0.49184729134862754, 1.4974663336558727, 0.3636346177075001, 1.9780080889712612, -0.5140995846047951, 0.9380295870770459, 0.4683284425627465, 0.9003880380807359, 0.4438829816158766, -0.5983180245189241, -0.7228694231059001, -0.1655617704831342, 0.2062591437046909, 1.8823036529111636, 5.347411591637027, 3.1492697169618005, 4.126336012682444, 3.903329154480938, 2.35559423530735, 1.5729826019313615, 1.4654244201199906, -5.820691898215932, -10.569005724293996, -9.783334879766157, -8.693652910601132, -4.6801228987955446, 0.33019382258708263, 0.013154769677169102, 3.1548608668182605, -2.3447300250355716, -1.9651378128036152, 1.2175663864832034, -0.8440314942011747, 0.5820050397956533, -0.3020423672729758, 0.4880948673558068, -0.06245354621480296, -1.3380966536280943, 0.6419851559721705, -0.035090378719590115, 0.1057006010944756, 2.2176291307058147, 4.2374207917701785, 4.209665309084604, 2.8315110160733474, 1.9841744879866692, 0.4212716394258803, 0.8391616648854345, -2.2329492487721, -4.753869687687553, -7.035585309740493, -11.637725515377719, -7.4518346957301755, -3.207951593079925, -3.15077178063445, 3.5570561656621162, 4.411469317973486, 1.9913820030382026, -2.1744172044089827, -2.2794572007547553, -2.118968776447444, 0.6121643254145992, 0.850855219100761, -0.267391686936993, -1.5559235209679125, -1.9371149188095484, -0.13354756002740756, -0.40933660704579267, 1.8255726317080743, 0.6876757657296879, 1.8256160436690323, 4.123249530558107, 2.979915083800545, 2.7157070580118, 1.5066048874468692, 1.2908854185078387, 0.34676379352482856, -3.5154868092308464, -6.742716786833489, -9.737067807555551, -8.814306203604751, -2.2344282690033035, 3.165688109674354, 5.931134193986668, 6.024442704524836, 1.6687025461219835, -0.12646002617957555, -1.2374474577858372, -0.9784598336955012, -0.34880365852738454, 1.4217852124505113, -2.1684516724161216, 0.5923510747418543, -0.028143719066186377, 1.2985280656668097, 1.307264814977704, -0.5861127752677833, 0.9784419289454217, 3.4739951102823814, 4.947675291589049, 3.9525720760533973, 6.6280756569463755, 2.2565823733299077, 5.629517498250001, 0.6639685750026867, -2.318384635302112, -7.453945686713606, -8.364645093152157, -7.110628633745659, 1.0010396062521998, 5.268511567889632, 7.956897394363625, 4.4638388165623715, 4.346353681879963, -0.25700760152006447, -0.22051618125528683, 0.09175784494812711, 1.2764703405111915, 2.118586502562757, 2.9395585847417114, 0.7492592394243989, 1.356635641189184, -0.6649341345549589, -0.5109950310374838, -0.8769705762959237, 1.6910456195412835, 2.982156026583455, 2.8957687167569266, 0.04330281854047404, 1.9313986580484646, 0.17079234255605594, 0.9695863389113176, -1.229708514250153, -4.226365336677655, -5.1692266441317205, -9.232034452681775, -7.361105109300956, -1.1505620049609808, 2.604908254151394, 6.163817179676536, 5.1161726691698854, 6.2124744863224635, -1.5204786551313083, -1.1622830670950257, -0.9624220792687954, -0.1756480346116356, -1.917809587564653, 0.08681032964880638, 0.016890329948763234, -0.29928712047390954, -0.0169346440013161, 0.166641900150491, -1.402558079157347, -0.7252580884404575, 1.7635537398525511, -0.1755597825938746, -0.1566829830779577, 0.3463928355471293, 0.25030473493874206, -0.6211388324390573, -4.326553591974408, -7.296228123799309, -6.4081541266110955, -6.30237870957677, -4.312054911639198, -0.9214834314142544, 2.3343169399845216, 3.4855486824198696, 5.327206879792292, 3.8434867994763464, 0.10582673683465903, -1.6812675348655886, 1.208077001284704, 1.7367321401969098, -0.565650011812948, 0.24123519881065075, 1.1300827654619572, -0.1780766692894188, 0.527563168798929, 0.23739488576308768, -1.561321684833605, -1.334364412789039, -1.1541274425026629, -0.4733742947055198, 0.7446755274575663, 1.6304815664314258, -2.6709550289272, -2.735566721376728, -4.888396949588972, -7.641963378301589, -7.940737398076996, -7.61434858622376, -6.631953385528411, -2.1398045948368805, 3.5348624442179752, 1.1476263966646698, 2.643218512525582, 3.069807633171127, -0.8778150135660528, 1.3786006062300256, 3.4996649073934805, 0.5928154445171829, 1.395614692429002, 1.829927595736938, 1.2041685988569022, -0.24551239897231392, -0.08355318398156356, 0.4114341131297546, -0.559619713038341, -1.5490160752364854, -2.4136020038629757, 0.12152715246463255, 0.6965209949677774, -2.1235945853654066, -2.2311423871071128, -4.743878714764849, -7.041896964384865, -6.610789694214445, -7.894795511017356, -6.994588146606483, -6.714127005305643, -0.7761367555904553, 0.49469313338278925, 0.13739323687032867, 1.3155201746377343, 0.7778761792549596, 0.8397747878364908, 1.1241460184389012, 2.7509139087506953, 1.5503039055141357, -1.0756544606825171, 0.6358207212266944, -0.11471746422261865, -1.0563767256985017, 0.3628663672702802, -0.15759311077275454, -0.7663387792688213, -1.516532527435512, -2.1901552902912087, -1.167947517048167, -0.6273409010441104, -2.0833095641328754, -1.3770155648040594, -3.6505838329554634, -4.563045547596739, -3.2876659596726765, -0.6735156380747643, -0.9238331772198437, -2.590692988123078, -0.7123035823261861, 2.613253857894784, 3.607055037264378, 2.11763643644374, 1.1134066683432342, 1.0174810848781615, 4.232707092834707, 2.9158145916707676, -0.42772761296552425, 1.2047896409138292, 1.0341830175916782, -1.1552301442038257, 1.334396091944243, 1.8636046011993326, -1.823596311513555, -0.25545327563617337, 1.6351615124041037, -1.418514382586418, -2.940635782807033, -1.18696374283118, 0.34486487212341566, 1.2380013620253152, -1.1048092739498558, 0.3584701452452307, 3.2533699787842085, 1.823968206166774, 3.5084966070335564, -0.7262662502045281, 1.3633396347307773, 3.3301795645127, 3.1725163381749137, 2.0169483664306282, 2.448166087037092, 2.5681574225908754, 2.2122353832770685, 1.4742954780226571, -1.02240306932122, 0.10807919764141831, -0.753385109127963, -1.3203688413360082, -0.5681851895050591, 0.208061074643661, 0.49790013005411055, -0.9717170070037926, -1.388476553849426, -2.798473912294219, -0.7533533214044177, -1.6050224320648125, -3.5737137485840855, -1.8341517133248497, -3.703219036672717, -1.087348697432707, 0.3681113374744859, -0.6969814434005178, -0.8326718778948765, -0.9975019551495771, 2.04917565273154, 2.057125561266402, 1.239036869362398, 0.7386130266392076, 1.6557573676971478, 2.0777636863939435, -0.16854594212651342, 0.8814251744803996, 0.7385724242808888, -0.544914221841956, 0.843538669193695, -0.43882670429833537, 0.5941187425830314, -0.9822390507512081, 0.03325387334054901, 0.8195062974403963, 0.9367957778107286, -0.08426556790229088, 0.38724165071062344, 0.4426728279627936, -3.0948010644476156, -3.348983587485615, -3.2086804646422, -1.0625571883027654, 1.0713224591066428, -1.3589983147980904, -0.7072668816457679, -1.7575214395614123, 0.5763950474384872, 2.7301188903144764, 2.1483000880404477, 2.3283381835406303, 1.644768476387879, 1.144833745355554, 0.6118530164105964, 2.0833942230129487, 0.9182465684126462, -2.12296752639947, -1.2855920979397293, -0.8170713122819192, 0.05986935487709917, 2.042791009274503, 2.018234609515293, 0.4118253656028451, -0.4269031498702063, 0.3885542559605589, 0.9495890148132766, 0.4433297338319571, -2.447620859086407, -1.0188427759914236, -1.4903170731728548, 0.3070086231186623, -1.4499023584955806, 0.4457130873713472, -0.9260718492001531, -1.976936932459669, 3.095914881968446, 2.5099336802334333, 1.686692063698549, -0.5892153404220204, 1.5407721310371112, -0.03256812897067626, 1.644743827944013, 1.5961909669978165, -0.7075625569773909, -0.07165397847009611, -1.634745597345921, -0.2710687126930723, -1.3073206611004493, 2.6122613055911166, -1.572033757533586, -0.591214688988535, -0.6865071743356062, -0.5204659335465718, -0.4213113675541932, 0.061161945127985326, 1.016972939117271, 1.059515786621095, -1.4651418530557003, 1.5727707584864543, 1.2900154764835143, -1.3742741096207167, -1.1032927364649914, 0.5846567314987388, 1.1897960777960594, 0.9042205993242429, 1.0106565141595958, 0.10226271050737458, 0.3927180979443431, -0.32766357798575435, -0.2539235723448872, 0.7875691756216764, 0.14401394821518415, -0.6565465842377627, 0.4903708138342375, 0.17962686557960741, -0.015333540083563258, -0.5258523485025742, -0.2063909605708861, -1.531045598902782, -0.5750384563815096, 0.7346995183656504, 0.28534489890058196, -1.0972574323208095, 0.05259416573390761, 0.9730463144255012, 0.2579038289388297, 0.31651124754521615, -1.5137447666721056, -0.8357395652274567, -0.834072255957542, 0.41580195716088647, 1.2649954102145593, 0.3107229776651407, 1.9176586906526627, 1.3943217919324253, 0.43149662380313086, 1.398847621152367, 0.08623332015813431, -2.2151107937862844, 0.5414320077294777, 1.8522442232192413, 0.46597200989746085, -0.06795858475989838], [0.8410120723376805, 0.6247682451735733, 2.2155532178087944, -1.557849429039513, -0.8709534763596102, 0.27741151223480165, -1.652938678537184, 1.3619710021422098, -0.13913218131471133, -0.9670373505265953, -1.6025384230573423, -0.7818161122058226, 0.8708326631713961, 0.2616247362552184, -0.2666809737239434, -0.6521024637649973, 0.5545469196285596, 0.24453431751598836, -0.9548701866651571, -1.3822081819936376, -0.4007552481343729, 0.5647989165579123, 1.473363138370091, 1.3625017595686337, 0.25733913112202295, -0.48182135126821135, -1.1079989843528746, -1.960074803973424, -1.3066622349279142, -0.9822912550783632, -0.6346937845951957, 0.36408354773025275, -0.45353167359433194, 0.4180450734282499, 0.15115975497086181, 0.7495479396540253, -0.13923359908805003, -0.6186711407196845, -0.6811155040790159, -1.7274089943647992, -0.623008678614287, -1.1277690175984918, 1.3194560501110222, -1.1924155482659071, 0.9654287796950497, -0.22157627079333558, -0.052584453458766445, -0.6851757175285348, 1.075726862489475, 0.27479067257367895, -0.1729397030235506, -1.7274953904598507, 1.032640712607628, 1.1723821405465589, 0.0411328887835212, 1.2582620956717887, 1.7060333387374358, -1.0260286297800187, 0.47979967539720136, 0.27803317182020665, -1.3289096485020853, -0.7551609041272779, 0.8897349968233647, -0.2350369116621711, 0.3889001219269856, 1.6749286305508242, -0.6176118648516402, 1.2031788511390884, -0.4328271092963814, 0.4751921147038531, -0.04383857554428789, -0.23513649366666084, 0.14200462067571898, -1.8875655266093907, 0.6951269890406441, -0.9765529364636627, 2.210382565080548, 1.3709329612299133, 0.3844709745618074, 0.9487426774628287, -0.09230816263597375, -0.31113978124127256, 1.436512954247896, -0.560621428471894, 1.4050336270084747, -0.7017916958738988, 0.25171749177523106, 0.9679548969022184, -1.0159799250456296, -0.36098025965274644, 0.27571067014509953, 0.027504124624204884, -0.044634071596746545, 0.6300296553110809, 0.2203807757231596, 0.020999322631558005, 